tree
version=v3
num_class=1
num_tree_per_iteration=1
label_index=0
max_feature_idx=49
objective=regression
feature_names=uf0 uf1 uf2 uf3 uf4 uf5 uf6 uf7 uf8 uf9 mf0 mf1 mf2 mf3 mf4 mf5 mf6 mf7 mf8 mf9 decade Action Adventure Animation Children Comedy Crime Documentary Drama Fantasy Film-Noir Horror IMAX Musical Mystery Romance Sci-Fi Thriller War Western ff0 ff1 ff2 ff3 ff4 ff5 ff6 ff7 ff8 ff9
feature_infos=[-13.4609375:20.78125] [-11.3125:16.828125] [-10.0859375:21.203125] [-11.7109375:11.21875] [-17.625:13.71875] [-19.0625:11.7265625] [-5.2109375:51.875] [-15.7265625:13.265625] [-13.4375:15.71875] [-11.09375:20.84375] [-0.059539794921875:0.411376953125] [-0.07501220703125:0.395751953125] [-0.07177734375:0.36669921875] [-0.1065673828125:0.61083984375] [-0.056243896484375:0.388427734375] [-0.096923828125:0.49462890625] [-0.0288238525390625:0.1983642578125] [-0.07318115234375:0.4306640625] [-0.08306884765625:0.436279296875] [-0.09796142578125:0.39599609375] [1900:2010] [0:1] [0:1] [0:1] [0:1] [0:1] [0:1] [0:1] [0:1] [0:1] [0:1] [0:1] [0:1] [0:1] [0:1] [0:1] [0:1] [0:1] [0:1] [0:1] [-2.9921875:7.609375] [-3.294921875:5.08203125] [-3.052734375:6.6875] [-4.28125:5.20703125] [-4.140625:3.896484375] [-7.0234375:4.61328125] [-1.0849609375:6.66015625] [-4.16015625:4.25390625] [-4.92578125:5.87109375] [-2.74609375:4.58203125]
tree_sizes=904 934 931 933 934 934 933 935 922 923 936 929 913 937 923 938 931 949 927 928 931 929 923 932 938 908 925 901 923 923 947 918 923 925 908 941 934 927 933 928 927 941 911 908 935 914 918 945 908 906 919 929 921 931 934 914 929 916 935 938 940 918 915 913 943 943 907 914 940 938 935 917 903 928 910 918 918 936 932 920 941 934 913 904 916 919 925 941 927 915 934 924 919 930 915 918 950 913 918 914 931 913 919 916 938 933 938 920 928 925 922 916 908 922 939 933 920 932 924 929 912 952 928 937 942 948 933 917 920 939 936 911 924 912 942 912 914 905 918 934 919 921 945 891 940 918 933 918 931 955 906 915 942 945 919 922 938 957 921 922 924 957 904 937 954 940 933 937 916 920 937 921 910 937 934 934 927 903 942 910 924 908 943 930 931 948 951 940 935 945 953 929 950 952 917 928 931 938 954 940 931 927 948 929 930 931 940 920 932 949 926 914 921 936 923 945 956 960 937 922 919 932 908 936 923 933 931 923 912 934 946 922 955 935 957 934 919 940 942 951 913 917 943 944 932 907 925 909 933 949 936 928 929 919 953 937 912 915 946 942 961 936 922 953 921 940 934 920 943 938 906 949 904 948 929 931 949 940 963 910 936 941 953 913 912 906 911 930 935 934 925 942 903 899 951 955 922 949 954 910 937 946 934 927 918 920 914 939 950 918 937 957 938 949 961 916 923 926 942 927 952 931 924 919 919 923 913 928 945 924 928 942 931 946 955 938 923 938 899 938 941 916 939 918 940 919 945 952 942 921 926 949 923 935 913 943 941 950 960 942 921 938 924 936 937 931 939 923 907 910 911 914 958 935 943 917 928 920 932 962 945 927 936 951 927 909 934 938 954 946 946 927 952 965 959 954 944 955 908 934 950 930 951 907 913 951 939 923 912 937 929 948 938 935 930 934 914 930 936 928 928 956 946 930 943 949 942 956 927 949 944 932 942 914 935 949 948 937 946 920 950 942 919 938 932 954 929 950 943 952 940 921 962 961 921 936 917 954 948 955 937 932 914 955 916 952 942 944 940 925 956 950 940 938 938 918 919 941 946 963 929 950 927 934 945 924 940 926 949 945 941 930 938 960 928 921 944 942 919 947

Tree=0
num_leaves=8
num_cat=0
split_feature=18 10 44 18 10 10 10
split_gain=242811 119804 38896.4 24908.8 13287.6 6824.74 4246.2
threshold=0.047195434570312507 -0.0014710426330566404 0.043807983398437507 0.19110107421875003 0.039199829101562507 -0.0072174072265624991 -0.0014710426330566404
decision_type=2 2 2 2 2 2 2
left_child=1 5 -3 4 -2 -1 -5
right_child=3 2 -4 6 -6 -7 -8
leaf_value=3.6244989872030451 3.6527154457102897 3.4317638100957777 3.5205608046837575 3.7615687997141021 3.5769317137294232 3.5623496155729866 3.6816402653553979
leaf_weight=357485 341789 1956040 574330 72183 532855 286439 349234
leaf_count=357485 341789 1956040 574330 72183 532855 286439 349234
internal_value=0 -0.149222 -0.247225 0.364429 0.268201 0.23589 0.56415
internal_weight=0 3.17429e+06 2.53037e+06 1.29606e+06 874644 643924 421417
internal_count=4470355 3174294 2530370 1296061 874644 643924 421417
shrinkage=1


Tree=1
num_leaves=8
num_cat=0
split_feature=14 18 18 20 10 18 18
split_gain=143230 56774.1 35344.8 32958.5 32528.2 8516.52 5718.23
threshold=0.0055561065673828134 0.015815734863281253 0.074768066406250014 1985.0000000000002 1.0000000180025095e-35 0.22424316406250003 0.032318115234375007
decision_type=2 2 2 2 2 2 2
left_child=1 4 3 -2 -1 -4 -3
right_child=2 6 5 -5 -6 -7 -8
leaf_value=-0.0076457776056907505 0.083294969239426392 -0.020067808024457387 0.071440366750188111 -0.0057763574500811947 -0.12735581791072614 0.13516736598543574 0.050452416935661687
leaf_weight=258315 512356 167820 632890 1383368 976724 268939 269943
leaf_count=258315 512356 167820 632890 1383368 976724 268939 269943
internal_value=0 -0.231378 0.138516 0.0609896 -0.341059 0.301482 0.0780597
internal_weight=0 1.6728e+06 2.79755e+06 1.89572e+06 1.23504e+06 901829 437763
internal_count=4470355 1672802 2797553 1895724 1235039 901829 437763
shrinkage=0.3


Tree=2
num_leaves=8
num_cat=0
split_feature=14 17 28 10 14 17 45
split_gain=71867.1 50917.3 36530.6 12065.5 6624.88 5994.57 3748.12
threshold=0.044906616210937507 -0.0030641555786132808 1.0000000180025095e-35 0.045028686523437507 0.12426757812500001 -0.016212463378906247 0.045791625976562507
decision_type=2 2 2 2 2 2 2
left_child=1 5 -3 6 -5 -1 -2
right_child=3 2 -4 4 -6 -7 -8
leaf_value=0.090668353661737491 0.063497724532461497 -0.082023899946750869 -0.004103847760555287 0.0052651057422228994 0.054190273187784521 0.027293579801996346 0.11088535951279292
leaf_weight=194619 350159 1307641 924237 485837 511166 433613 263083
leaf_count=194619 350159 1307641 924237 485837 511166 433613 263083
internal_value=0 -0.0950664 -0.165855 0.169052 0.101164 0.156421 0.279424
internal_weight=0 2.86011e+06 2.23188e+06 1.61025e+06 997003 628232 613242
internal_count=4470355 2860110 2231878 1610245 997003 628232 613242
shrinkage=0.3


Tree=3
num_leaves=8
num_cat=0
split_feature=16 28 18 45 18 41 16
split_gain=84938.8 24289.5 12947.6 12637.9 6887.91 6081.57 3829.23
threshold=0.041290283203125007 1.0000000180025095e-35 0.025978088378906253 0.11807250976562501 0.0051288604736328134 0.11062622070312501 0.12255859375000001
decision_type=2 2 2 2 2 2 2
left_child=1 2 -1 5 -3 -2 -5
right_child=3 4 -4 6 -6 -7 -8
leaf_value=-0.084620050996614599 0.019331543204279916 -0.020637663552040768 -0.017152315904336052 0.065040224286661633 0.036420411628314463 0.065370555491918517 0.12057588744939199
leaf_weight=985341 1348366 625675 345855 419726 273712 319399 152281
leaf_count=985341 1348366 625675 345855 419726 273712 319399 152281
internal_value=0 -0.137865 -0.223638 0.13782 -0.0109103 0.0938287 0.266084
internal_weight=0 2.23058e+06 1.3312e+06 2.23977e+06 899387 1.66777e+06 572007
internal_count=4470355 2230583 1331196 2239772 899387 1667765 572007
shrinkage=0.3


Tree=4
num_leaves=8
num_cat=0
split_feature=16 6 20 11 49 15 40
split_gain=43383 19915.6 16315.1 10717.6 5870.18 5077.87 2479.31
threshold=0.044662475585937507 1.9936523437500002 1975.0000000000002 0.022605895996093753 0.11965942382812501 0.012409210205078127 -0.092987060546874986
decision_type=2 2 2 2 2 2 2
left_child=1 4 -3 6 -1 -5 -2
right_child=3 2 -4 5 -6 -7 -8
leaf_value=-0.0089639701532183112 -0.046948507589468932 0.034191774129624666 -0.068042894788889322 0.01400653648408687 0.049010740467312811 0.060647013350981972 0.011284386017659092
leaf_weight=971600 71527 161967 1059318 271868 187525 924481 822069
leaf_count=971600 71527 161967 1059318 271868 187525 924481 822069
internal_value=0 -0.0925048 -0.181615 0.104936 0.00138422 0.166827 0.0220773
internal_weight=0 2.38041e+06 1.22129e+06 2.08995e+06 1.15913e+06 1.19635e+06 893596
internal_count=4470355 2380410 1221285 2089945 1159125 1196349 893596
shrinkage=0.3


Tree=5
num_leaves=8
num_cat=0
split_feature=45 43 19 19 40 43 9
split_gain=15675.2 10966.8 10300.4 5724.81 4995.99 1753.46 1069.31
threshold=0.020988464355468753 0.13079833984375003 -0.0034322738647460933 -0.0034322738647460933 -0.057266235351562493 0.52856445312500011 -0.16094970703124997
decision_type=2 2 2 2 2 2 2
left_child=1 2 -1 6 -5 -3 -2
right_child=3 5 -4 4 -6 -7 -8
leaf_value=0.025569617723427113 0.08408996593853145 0.021574444811472328 -0.031664625238755219 -0.02659190128703837 0.021305149795070782 0.071702578775065334 0.044284403816478017
leaf_weight=332947 120116 301933 1886424 227932 1398842 79296 122865
leaf_count=332947 120116 301933 1886424 227932 1398842 79296 122865
internal_value=0 -0.0500139 -0.0769281 0.0700323 0.0486472 0.10667 0.213207
internal_weight=0 2.6006e+06 2.21937e+06 1.86976e+06 1.62677e+06 381229 242981
internal_count=4470355 2600600 2219371 1869755 1626774 381229 242981
shrinkage=0.3


Tree=6
num_leaves=8
num_cat=0
split_feature=11 16 20 20 12 18 18
split_gain=18291.5 9244.8 8675.92 5819.35 4877.38 3143.78 2701.47
threshold=0.0023031234741210942 0.038406372070312507 1985.0000000000002 1995.0000000000002 0.12622070312500003 -0.0067043304443359366 0.074768066406250014
decision_type=2 2 2 2 2 2 2
left_child=1 4 5 -4 -1 -2 -3
right_child=2 6 3 -5 -6 -7 -8
leaf_value=-0.056450275399980938 -0.0024532606443934701 -0.013660274308295538 -0.0076357233638023126 0.029195986034838764 0.059623636191659293 0.04285584320781733 0.02986176872878895
leaf_weight=706827 163827 506441 1498828 520028 34155 868313 171936
leaf_count=706827 163827 506441 1498828 520028 34155 868313 171936
internal_value=0 -0.0931123 0.0443008 0.00617197 -0.170333 0.11888 -0.00876509
internal_weight=0 1.41936e+06 3.051e+06 2.01886e+06 740982 1.03214e+06 678377
internal_count=4470355 1419359 3050996 2018856 740982 1032140 678377
shrinkage=0.3


Tree=7
num_leaves=8
num_cat=0
split_feature=10 16 6 40 10 27 4
split_gain=19301.6 16323.8 19571.9 5091.33 4259.13 2225.57 1497.03
threshold=-1.0000000180025095e-35 0.061309814453125007 1.0434570312500002 -1.0000000180025095e-35 0.069458007812500014 1.0000000180025095e-35 0.92016601562500011
decision_type=2 2 2 2 2 2 2
left_child=3 2 -2 6 -3 -5 -1
right_child=1 4 -4 5 -6 -7 -8
leaf_value=-0.0021506157052268121 0.0053607471693002265 0.03718006597393856 -0.049772011915083993 0.052616490633294967 0.00042265319382868232 0.15365801932825487 0.032483907036058399
leaf_weight=251345 1051955 568228 1290318 518443 566612 20391 203063
leaf_count=251345 1051955 568228 1290318 518443 566612 20391 203063
internal_value=0 -0.0356773 -0.0833698 0.122386 0.0627584 0.188134 0.0444221
internal_weight=0 3.47711e+06 2.34227e+06 993242 1.13484e+06 538834 454408
internal_count=4470355 3477113 2342273 993242 1134840 538834 454408
shrinkage=0.3


Tree=8
num_leaves=8
num_cat=0
split_feature=17 15 28 47 47 15 2
split_gain=10113.5 11934.3 10562.9 3261.27 1799.6 1624.45 1490.22
threshold=-0.0011477470397949217 0.097717285156250014 1.0000000180025095e-35 0.0020990371704101567 0.56616210937500011 0.001341819763183594 1.9057617187500002
decision_type=2 2 2 2 2 2 2
left_child=3 2 -2 5 -3 -1 -5
right_child=1 4 -4 6 -6 -7 -8
leaf_value=-0.010946927330009515 -0.034813789546129723 0.019774177702822686 0.003099205807428498 0.055771398677107904 0.069362908715863966 0.02439028274558834 0.022933188714243932
leaf_weight=211681 1436982 739240 1225353 318921 72307 261982 203889
leaf_count=211681 1436982 739240 1225353 318921 72307 261982 203889
internal_value=0 -0.0255198 -0.0578805 0.0887632 0.0806414 0.02866 0.143216
internal_weight=0 3.47388e+06 2.66234e+06 996473 811547 473663 522810
internal_count=4470355 3473882 2662335 996473 811547 473663 522810
shrinkage=0.3


Tree=9
num_leaves=8
num_cat=0
split_feature=43 10 49 0 10 14 49
split_gain=7874.07 9133.07 7972.82 2910.22 1175.14 1391.51 649.258
threshold=0.23419189453125003 0.001589775085449219 0.049331665039062507 1.6723632812500002 0.11929321289062501 0.15954589843750003 -0.079620361328124986
decision_type=2 2 2 2 2 2 2
left_child=1 3 -3 -1 6 -6 -2
right_child=4 2 -4 -5 5 -7 -8
leaf_value=0.029104219365097217 0.01488829842039544 -0.024578374894316728 0.0077861043686395593 -0.005489630057400662 -0.0019856685718185611 0.058284141201073267 0.05622409956236557
leaf_weight=785029 39964 1865785 1082488 303467 105315 51257 237050
leaf_count=785029 39964 1865785 1082488 303467 105315 51257 237050
internal_value=0 -0.0134166 -0.0423181 0.0648654 0.128396 0.0591496 0.167536
internal_weight=0 4.03677e+06 2.94827e+06 1.0885e+06 433586 156572 277014
internal_count=4470355 4036769 2948273 1088496 433586 156572 277014
shrinkage=0.3


Tree=10
num_leaves=8
num_cat=0
split_feature=19 14 13 12 15 13 17
split_gain=6983.05 8292 6698.21 5815.48 1342.15 2475.98 1297.63
threshold=-0.0076675415039062491 0.0015435218811035158 0.032653808593750007 0.019210815429687503 -0.0011773109436035154 -0.0044040679931640616 0.026298522949218753
decision_type=2 2 2 2 2 2 2
left_child=4 2 -2 -3 5 -1 -6
right_child=1 3 -4 -5 6 -7 -8
leaf_value=-0.13891283205687791 -0.034717880444534867 0.022101455033379788 0.027677858594439698 -0.0058911274914181877 0.072545987207560794 0.023446582027444023 0.030363101911268793
leaf_weight=8864 1001818 1082037 183151 1745381 116863 182525 149716
leaf_count=8864 1001818 1082037 183151 1745381 116863 182525 149716
internal_value=0 -0.0133582 -0.0835796 0.0160716 0.116981 0.0530902 0.162851
internal_weight=0 4.01239e+06 1.18497e+06 2.82742e+06 457968 191389 266579
internal_count=4470355 4012387 1184969 2827418 457968 191389 266579
shrinkage=0.3


Tree=11
num_leaves=8
num_cat=0
split_feature=49 6 15 40 49 40 40
split_gain=5977.94 6067.15 7026.27 3816.79 870.114 465.345 431.988
threshold=0.42370605468750006 3.8193359375000004 0.001341819763183594 -0.023216247558593747 0.64575195312500011 -0.17388916015624997 -0.17388916015624997
decision_type=2 2 2 2 2 2 2
left_child=1 3 -3 -1 6 -6 -2
right_child=4 2 -4 -5 5 -7 -8
leaf_value=-0.020306626738781856 -0.034647343643150794 -0.042202212064724513 -0.00043219857525027212 0.010515361451187253 0.0047678010378020491 0.063853752592294269 0.029896968802038081
leaf_weight=430046 10030 632910 848131 2271634 13214 130186 134204
leaf_count=430046 10030 632910 848131 2271634 13214 130186 134204
internal_value=0 -0.00950139 -0.0609408 0.0186973 0.139537 0.194697 0.0846952
internal_weight=0 4.18272e+06 1.48104e+06 2.70168e+06 287634 143400 144234
internal_count=4470355 4182721 1481041 2701680 287634 143400 144234
shrinkage=0.3


Tree=12
num_leaves=8
num_cat=0
split_feature=27 41 19 20 16 48 20
split_gain=5858.59 5556.83 6591.59 2362.78 885.084 172.012 120.215
threshold=1.0000000180025095e-35 0.015300750732421877 -0.0034322738647460933 1965.0000000000002 0.065277099609375014 0.056655883789062507 1975.0000000000002
decision_type=2 2 2 2 2 2 2
left_child=1 2 -1 -3 6 -6 -2
right_child=4 3 -4 -5 5 -7 -8
leaf_value=0.025819496620365649 0.053105823306324206 0.042391257763323469 -0.016850414195629486 0.0074778346789654499 0.054899400598853197 -0.019088145443299277 0.12216843253156942
leaf_weight=383609 2405 194740 2163208 1674684 7062 4717 39930
leaf_count=383609 2405 194740 2163208 1674684 7062 4717 39930
internal_value=0 -0.00435368 -0.0347445 0.0370494 0.326691 0.0842349 0.39415
internal_weight=0 4.41624e+06 2.54682e+06 1.86942e+06 54114 11779 42335
internal_count=4470355 4416241 2546817 1869424 54114 11779 42335
shrinkage=0.3


Tree=13
num_leaves=8
num_cat=0
split_feature=36 15 19 15 49 12 23
split_gain=4067.04 3873.85 3433.42 3873.09 3151.6 2295.54 493.605
threshold=1.0000000180025095e-35 0.0055675506591796884 -0.0034322738647460933 0.11685180664062501 0.0049076080322265634 0.019210815429687503 1.0000000180025095e-35
decision_type=2 2 2 2 2 2 2
left_child=1 4 6 -4 -1 -3 -2
right_child=2 5 3 -5 -6 -7 -8
leaf_value=-0.020200339658265138 0.019940429147286814 0.026024960990562181 -0.04526634492951076 0.0078941649948784665 0.0054979435725307779 0.0051243106636506908 0.076631101683781636
leaf_weight=809598 90555 744359 423644 174008 914835 1297043 16313
leaf_count=809598 90555 744359 423644 174008 914835 1297043 16313
internal_value=0 0.0130063 -0.0697751 -0.0992951 -0.0218902 0.0424845 0.0953135
internal_weight=0 3.76584e+06 704520 597652 1.72443e+06 2.0414e+06 106868
internal_count=4470355 3765835 704520 597652 1724433 2041402 106868
shrinkage=0.3


Tree=14
num_leaves=8
num_cat=0
split_feature=48 45 5 10 18 10 12
split_gain=4643.81 4988.9 5200.26 3721.84 743.217 604.375 445.791
threshold=0.59594726562500011 0.00090003013610839855 1.8872070312500002 0.016296386718750003 0.29528808593750006 0.25756835937500006 0.087219238281250014
decision_type=2 2 2 2 2 2 2
left_child=1 2 -1 -3 5 -2 -6
right_child=4 3 -4 -5 6 -7 -8
leaf_value=-0.0092087287311617486 0.032880659801072062 0.01901582037256512 -0.061104908320801135 -0.0040811084629153527 0.037383409640728851 -0.031679898043147026 0.087853997766966452
leaf_weight=1414886 207712 1089113 198111 1482741 28218 13925 35649
leaf_count=1414886 207712 1089113 198111 1482741 28218 13925 35649
internal_value=0 -0.00834415 -0.0519423 0.0189995 0.12347 0.0960815 0.218516
internal_weight=0 4.18485e+06 1.613e+06 2.57185e+06 285504 221637 63867
internal_count=4470355 4184851 1612997 2571854 285504 221637 63867
shrinkage=0.3


Tree=15
num_leaves=8
num_cat=0
split_feature=18 41 17 19 11 10 6
split_gain=3347.66 4743.43 3534.22 2533.94 1985.73 1956.3 895.195
threshold=1.0000000180025095e-35 0.0023050308227539067 0.017356872558593753 0.19860839843750003 0.13861083984375003 0.001589775085449219 7.8417968750000009
decision_type=2 2 2 2 2 2 2
left_child=1 5 6 -4 -3 -1 -2
right_child=2 4 3 -5 -6 -7 -8
leaf_value=-0.006667570093743567 0.023963492981547232 -0.0016158958523855838 -0.0071292821570479153 0.024018828128173301 0.043942913641086608 -0.041135699401358423 0.0040003356016460757
leaf_weight=219147 864163 803306 1486435 279212 96440 457752 263900
leaf_count=219147 864163 803306 1486435 279212 96440 457752 263900
internal_value=0 -0.0366841 0.0205885 -0.0073455 0.0108912 -0.099922 0.064311
internal_weight=0 1.57665e+06 2.89371e+06 1.76565e+06 899746 676899 1.12806e+06
internal_count=4470355 1576645 2893710 1765647 899746 676899 1128063
shrinkage=0.3


Tree=16
num_leaves=8
num_cat=0
split_feature=40 16 40 27 49 16 14
split_gain=4104.2 3551.75 2694.29 2207.19 1838.09 1124.38 451.979
threshold=-0.0080986022949218733 0.041290283203125007 0.72143554687500011 1.0000000180025095e-35 0.022789001464843753 0.085205078125000014 0.15954589843750003
decision_type=2 2 2 2 2 2 2
left_child=1 4 3 -2 -1 -3 -4
right_child=2 5 6 -5 -6 -7 -8
leaf_value=-0.058040376424907968 0.0022663531796508693 -0.013617571399927055 0.034647735397558561 0.068319330279049767 -0.017621663812654169 0.011840733582826382 0.072318571715639421
leaf_weight=209014 3234747 358037 110358 46180 196423 276873 38723
leaf_count=209014 3234747 358037 110358 46180 196423 276873 38723
internal_value=0 -0.055077 0.0166279 0.0106536 -0.128195 -0.00838552 0.148108
internal_weight=0 1.04035e+06 3.43001e+06 3.28093e+06 405437 634910 149081
internal_count=4470355 1040347 3430008 3280927 405437 634910 149081
shrinkage=0.3


Tree=17
num_leaves=8
num_cat=0
split_feature=43 10 6 44 10 43 45
split_gain=3866.27 3176.02 3982.89 1926.19 1662.51 1470.4 1394.06
threshold=0.011821746826171877 0.001589775085449219 1.0000000180025095e-35 -1.0000000180025095e-35 0.090240478515625014 0.52856445312500011 -0.0077114105224609366
decision_type=2 2 2 2 2 2 2
left_child=1 3 -3 -1 6 -6 -2
right_child=4 2 -4 -5 5 -7 -8
leaf_value=-0.014578648173891743 -0.00013830129800202853 0.0091879946915556284 -0.024122346424870798 0.01771384277316802 -0.0092764138844912448 0.034861247937637799 0.021033454718971469
leaf_weight=239942 383299 437983 1231203 541221 520935 78116 1037656
leaf_count=239942 383299 437983 1231203 541221 520935 78116 1037656
internal_value=0 -0.0266442 -0.0512731 0.0259829 0.0324476 -0.0117363 0.0510748
internal_weight=0 2.45035e+06 1.66919e+06 781163 2.02001e+06 599051 1.42096e+06
internal_count=4470355 2450349 1669186 781163 2020006 599051 1420955
shrinkage=0.3


Tree=18
num_leaves=8
num_cat=0
split_feature=49 43 17 8 42 21 18
split_gain=2842.25 2796.24 2520.68 1435.88 923.369 889.407 601.08
threshold=-0.044052124023437493 0.061294555664062507 -0.0011477470397949217 4.6152343750000009 0.81909179687500011 1.0000000180025095e-35 0.15093994140625003
decision_type=2 2 2 2 2 2 2
left_child=3 2 -2 5 -3 -1 -5
right_child=1 4 -4 6 -6 -7 -8
leaf_value=-0.022438021688163411 0.012292682844643752 0.014453429113346045 -0.0072400385422569293 -0.008717383811686347 0.057604239305004371 -0.05594482252320037 0.035020192505849583
leaf_weight=226549 812503 916127 2217280 108717 46917 104041 38221
leaf_count=226549 812503 916127 2217280 108717 46917 104041 38221
internal_value=0 0.00824683 -0.00667303 -0.0733855 0.0551854 -0.109944 0.00886494
internal_weight=0 3.99283e+06 3.02978e+06 477528 963044 330590 146938
internal_count=4470355 3992827 3029783 477528 963044 330590 146938
shrinkage=0.3


Tree=19
num_leaves=8
num_cat=0
split_feature=40 42 45 14 25 4 40
split_gain=2835.25 2162.32 1791.55 1185.29 571.054 555.887 419.665
threshold=-0.092987060546874986 0.54858398437500011 0.0024538040161132817 0.065704345703125014 1.0000000180025095e-35 -0.37829589843749994 -0.17388916015624997
decision_type=2 2 2 2 2 2 2
left_child=3 2 -2 5 -3 -1 -5
right_child=1 4 -4 6 -6 -7 -8
leaf_value=-0.015204985509607255 -0.0069349547442145399 0.038747128141792118 0.0060203302272727856 -0.024836129797771254 0.0078793319235263212 -0.061763040898325475 0.0049756485876398925
leaf_weight=30556 1684350 173341 2235985 99039 78307 94336 74441
leaf_count=30556 1684350 173341 2235985 99039 78307 94336 74441
internal_value=0 0.00728187 0.00151388 -0.093624 0.0971393 -0.167907 -0.0401459
internal_weight=0 4.17198e+06 3.92034e+06 298372 251648 124892 173480
internal_count=4470355 4171983 3920335 298372 251648 124892 173480
shrinkage=0.3


Tree=20
num_leaves=8
num_cat=0
split_feature=49 48 18 23 4 17 6
split_gain=2570.5 2732.62 3057.59 1543.53 1166.84 920.208 871.868
threshold=0.23919677734375003 0.0021162033081054692 -0.018547058105468747 1.0000000180025095e-35 0.44104003906250006 0.037109375000000007 -0.49108886718749994
decision_type=2 2 2 2 2 2 2
left_child=1 2 -1 -3 6 -6 -2
right_child=4 3 -4 -5 5 -7 -8
leaf_value=-0.068870626390118928 0.068323225314253555 0.0016499376489638824 -0.0093990533505657788 0.032633782569953466 0.030164969990475018 -0.0078079360413404603 0.024460472025356943
leaf_weight=82241 48340 2216228 1442205 154815 84015 181548 260963
leaf_count=82241 48340 2216228 1442205 154815 84015 181548 260963
internal_value=0 -0.00899375 -0.0420248 0.0122433 0.0626396 0.014018 0.104385
internal_weight=0 3.89549e+06 1.52445e+06 2.37104e+06 574866 265563 309303
internal_count=4470355 3895489 1524446 2371043 574866 265563 309303
shrinkage=0.3


Tree=21
num_leaves=8
num_cat=0
split_feature=0 10 41 16 16 10 18
split_gain=2832.53 2183.09 3226.31 2962.17 1146.41 671.716 657.124
threshold=6.9667968750000009 0.016296386718750003 0.19500732421875003 0.014080047607421877 0.014080047607421877 -0.0014710426330566404 0.0012254714965820315
decision_type=2 2 2 2 2 2 2
left_child=1 3 -3 -1 6 -6 -2
right_child=4 2 -4 -5 5 -7 -8
leaf_value=-0.013464095355447934 -0.022925204669226987 -0.013144458306472682 0.015767963546582036 0.013650654328879294 -0.011040019431385658 0.044800727402593651 0.041790595726001294
leaf_weight=511842 50563 2007587 420036 1243712 21522 195500 19593
leaf_count=511842 50563 2007587 420036 1243712 21522 195500 19593
internal_value=0 -0.00771307 -0.0271398 0.0191506 0.0949536 0.130877 -0.0161718
internal_weight=0 4.18318e+06 2.42762e+06 1.75555e+06 287178 217022 70156
internal_count=4470355 4183177 2427623 1755554 287178 217022 70156
shrinkage=0.3


Tree=22
num_leaves=8
num_cat=0
split_feature=48 40 21 41 17 8 46
split_gain=1832.35 1948.06 2352.62 1403.67 201.531 162.238 148.584
threshold=0.92797851562500011 -0.014347076416015623 1.0000000180025095e-35 1.0000000180025095e-35 0.051773071289062507 7.0214843750000009 0.0089607238769531267
decision_type=2 2 2 2 2 2 2
left_child=1 2 -1 -3 6 -6 -2
right_child=4 3 -4 -5 5 -7 -8
leaf_value=-0.0042719155355512442 0.075734755398652057 -0.00564209572068077 -0.039592542972131294 0.0067229980634723923 0.018664749766292035 0.044974695126806831 0.037729075310229891
leaf_weight=608212 14352 1347634 235414 2135657 73402 29600 26084
leaf_count=608212 14352 1347634 235414 2135657 73402 29600 26084
internal_value=0 -0.00397845 -0.0470938 0.00646375 0.110904 0.0874184 0.170728
internal_weight=0 4.32692e+06 843626 3.48329e+06 143438 103002 40436
internal_count=4470355 4326917 843626 3483291 143438 103002 40436
shrinkage=0.3


Tree=23
num_leaves=8
num_cat=0
split_feature=43 16 10 19 47 5 13
split_gain=1713.54 1481.75 3789.02 1545.66 709.026 645.392 299.37
threshold=-0.014606475830078123 0.019905090332031253 0.001589775085449219 0.014209747314453127 0.36828613281250006 0.18499755859375003 -0.0044040679931640616
decision_type=2 2 2 2 2 2 2
left_child=4 2 -2 -3 5 -1 -6
right_child=1 3 -4 -5 6 -7 -8
leaf_value=-0.0047838226088392222 0.016945841061928285 0.017263158829596181 -0.020687662587360236 0.0015987871825695434 -0.013966777309036936 -0.023441536530252657 0.023577843270077652
leaf_weight=278004 379850 822554 657656 1824303 27395 417359 63234
leaf_count=278004 379850 822554 657656 1824303 27395 417359 63234
internal_value=0 0.00900026 -0.0230312 0.0215558 -0.0424311 -0.0532741 0.0407633
internal_weight=0 3.68436e+06 1.03751e+06 2.64686e+06 785992 695363 90629
internal_count=4470355 3684363 1037506 2646857 785992 695363 90629
shrinkage=0.3


Tree=24
num_leaves=8
num_cat=0
split_feature=6 16 14 12 4 14 14
split_gain=2448.23 2374.27 2413 1767.5 1754.21 1702.81 1076.17
threshold=2.3662109375000004 0.022621154785156253 1.0000000180025095e-35 0.025238037109375003 -0.17327880859374997 -0.0053806304931640616 0.18969726562500003
decision_type=2 2 2 2 2 2 2
left_child=4 2 -2 -3 5 -1 -6
right_child=1 3 -4 -5 6 -7 -8
leaf_value=0.045221236210864303 -0.04137586079711033 0.0097394266269047111 -0.0049232658821086192 -0.011429795598746137 -0.0010727832032864889 0.010698016234371893 0.02444804520382696
leaf_weight=171587 315781 721806 338762 698460 1546368 513061 164530
leaf_count=171587 315781 721806 338762 698460 1546368 513061 164530
internal_value=0 -0.025202 -0.0750321 -0.00223732 0.0217231 0.0645008 0.00460483
internal_weight=0 2.07481e+06 654543 1.42027e+06 2.39555e+06 684648 1.7109e+06
internal_count=4470355 2074809 654543 1420266 2395546 684648 1710898
shrinkage=0.3


Tree=25
num_leaves=8
num_cat=0
split_feature=8 49 43 15 6 15 7
split_gain=1888.88 1825.45 1614.71 519.706 372.062 186.397 118.596
threshold=8.4882812500000018 -0.079620361328124986 0.33532714843750006 0.097717285156250014 5.0917968750000009 -0.0011773109436035154 -4.9238281249999991
decision_type=2 2 2 2 2 2 2
left_child=1 3 -3 -1 6 -6 -2
right_child=4 2 -4 -5 5 -7 -8
leaf_value=-0.034168591177300131 0.17766008131997182 -0.00094249955898078317 0.024467978902019176 -0.0084769227048038936 0.0064675236321800854 0.034560747561850333 0.052127756988077527
leaf_weight=176909 686 3795710 239253 118214 38463 47513 53607
leaf_count=176909 686 3795710 239253 118214 38463 47513 53607
internal_value=0 -0.00367217 0.00188071 -0.0795919 0.114236 0.073309 0.179046
internal_weight=0 4.33009e+06 4.03496e+06 295123 140269 85976 54293
internal_count=4470355 4330086 4034963 295123 140269 85976 54293
shrinkage=0.3


Tree=26
num_leaves=8
num_cat=0
split_feature=45 5 19 31 19 4 13
split_gain=1735.1 1729.48 2611.48 1621.87 957.704 718.691 255.34
threshold=0.36364746093750006 0.77319335937500011 1.0000000180025095e-35 1.0000000180025095e-35 0.032241821289062507 -0.58666992187499989 0.039993286132812507
decision_type=2 2 2 2 2 2 2
left_child=1 3 -3 -1 6 -6 -2
right_child=4 2 -4 -5 5 -7 -8
leaf_value=0.0053978885043865074 0.082503095646511745 0.016812985619685746 -0.014732040668224616 -0.024993707975202582 0.038069743185235157 0.0028590931574906217 0.040024326378481787
leaf_weight=2398170 23945 287197 1329987 169183 78293 156375 27205
leaf_count=2398170 23945 287197 1329987 169183 78293 156375 27205
internal_value=0 -0.00481793 -0.0304331 0.0113172 0.0757135 0.0486884 0.1997
internal_weight=0 4.18454e+06 1.61718e+06 2.56735e+06 285818 234668 51150
internal_count=4470355 4184537 1617184 2567353 285818 234668 51150
shrinkage=0.3


Tree=27
num_leaves=8
num_cat=0
split_feature=6 49 10 19 13 2 9
split_gain=1535.27 1482.24 1871.45 910.1 513.439 337.04 249.182
threshold=-2.7431640624999996 0.64575195312500011 0.090240478515625014 0.090423583984375014 0.032653808593750007 5.1230468750000009 7.8652343750000009
decision_type=2 2 2 2 2 2 2
left_child=3 2 -2 4 -1 -5 -3
right_child=1 6 -4 5 -6 -7 -8
leaf_value=0.025645984944161794 0.0012100567989968467 0.022853683481151316 -0.014475798268656782 0.046666911775737278 -0.02334280726352023 0.10362441010387484 0.054217011626379097
leaf_weight=59382 3313543 113039 862794 53200 28494 11344 28559
leaf_count=59382 3313543 113039 862794 53200 28494 11344 28559
internal_value=0 -0.00335679 -0.00676834 0.0987616 0.0325375 0.188925 0.0972646
internal_weight=0 4.31794e+06 4.17634e+06 152420 87876 64544 141598
internal_count=4470355 4317935 4176337 152420 87876 64544 141598
shrinkage=0.3


Tree=28
num_leaves=8
num_cat=0
split_feature=40 6 10 10 41 17 9
split_gain=1655.57 1585.92 1921.3 1346.74 585.679 579.457 242.918
threshold=0.47009277343750006 5.0917968750000009 0.0036840438842773442 0.11929321289062501 -0.13555908203124997 0.037109375000000007 5.3613281250000009
decision_type=2 2 2 2 2 2 2
left_child=1 3 -3 -1 6 -6 -2
right_child=4 2 -4 -5 5 -7 -8
leaf_value=0.0048875904762070207 -0.0068678136521709721 0.003022084475432825 -0.020996346909099173 -0.013104784401152278 0.050311768337118187 0.017998482333829335 0.038186110632727886
leaf_weight=2510458 69671 526697 695620 440038 78836 136295 12740
leaf_count=2510458 69671 526697 695620 440038 78836 136295 12740
internal_value=0 -0.00520054 -0.0354893 0.00734734 0.0720065 0.0994662 0.000323727
internal_weight=0 4.17281e+06 1.22232e+06 2.9505e+06 297542 215131 82411
internal_count=4470355 4172813 1222317 2950496 297542 215131 82411
shrinkage=0.3


Tree=29
num_leaves=8
num_cat=0
split_feature=8 15 4 6 14 14 5
split_gain=1162.66 1127.27 1061.91 1446.96 936.87 831.617 803.65
threshold=4.0761718750000009 -0.0011773109436035154 6.6992187500000009 1.9936523437500002 1.0000000180025095e-35 0.012180328369140627 -2.5947265624999996
decision_type=2 2 2 2 2 2 2
left_child=2 6 3 -1 -4 -3 -2
right_child=1 5 4 -5 -6 -7 -8
leaf_value=0.0019880651002290878 0.012890306344129829 0.032583328333759029 -0.033180786627965295 -0.010334161880585582 0.034326130285625873 0.0084387155417073884 -0.017277502381732715
leaf_weight=1949664 141395 218958 22045 1531299 115133 310387 181474
leaf_count=1949664 141395 218958 22045 1531299 115133 310387 181474
internal_value=0 0.0330154 -0.00804099 -0.0114419 0.0782584 0.0614196 -0.0135534
internal_weight=0 852214 3.61814e+06 3.48096e+06 137178 529345 322869
internal_count=4470355 852214 3618141 3480963 137178 529345 322869
shrinkage=0.3


Tree=30
num_leaves=8
num_cat=0
split_feature=44 17 17 4 44 45 21
split_gain=1609.2 2015.55 1902.36 1529.56 1529.09 948.583 468.852
threshold=-0.0010304450988769529 0.091278076171875014 0.044067382812500007 -0.37829589843749994 0.20172119140625003 0.0075054168701171884 1.0000000180025095e-35
decision_type=2 2 2 2 2 2 2
left_child=1 5 4 -4 -2 -1 -3
right_child=2 6 3 -5 -6 -7 -8
leaf_value=-0.023706482059566616 0.0065273850069749997 0.0024355070191320483 0.030565863464666505 -0.0093100769351026 0.033106185395730042 -0.0059550247505333167 0.024910343148466275
leaf_weight=536408 1694667 206216 94513 1030612 220109 547406 140424
leaf_count=536408 1694667 206216 94513 1030612 220109 547406 140424
internal_value=0 -0.027907 0.0127663 -0.019868 0.0319423 -0.0491356 0.0384669
internal_weight=0 1.43045e+06 3.0399e+06 1.12513e+06 1.91478e+06 1.08381e+06 346640
internal_count=4470355 1430454 3039901 1125125 1914776 1083814 346640
shrinkage=0.3


Tree=31
num_leaves=8
num_cat=0
split_feature=0 48 18 45 10 41 3
split_gain=2105.53 1219.32 1401.1 692.746 611.183 305.112 259.474
threshold=8.5273437500000018 0.013607025146484377 -0.018547058105468747 0.54565429687500011 -1.0000000180025095e-35 0.010684967041015627 0.41516113281250006
decision_type=2 2 2 2 2 2 2
left_child=1 2 -1 -3 6 -6 -2
right_child=4 3 -4 -5 5 -7 -8
leaf_value=-0.038228650855790941 -0.061162168320066559 0.0029500418548245757 -0.0043017417699206945 0.031841575265793912 0.032817911323805578 0.064594136345525313 0.014941806331237012
leaf_weight=115543 7339 2018015 2113042 77563 91144 38761 8948
leaf_count=115543 7339 2018015 2113042 77563 91144 38761 8948
internal_value=0 -0.00391895 -0.0202024 0.013398 0.118103 0.140998 -0.0645034
internal_weight=0 4.32416e+06 2.22859e+06 2.09558e+06 146192 129905 16287
internal_count=4470355 4324163 2228585 2095578 146192 129905 16287
shrinkage=0.3


Tree=32
num_leaves=8
num_cat=0
split_feature=0 36 47 20 4 18 47
split_gain=1353.96 1484.66 1091.7 981.901 487.941 628.596 248.023
threshold=5.9003906250000009 1.0000000180025095e-35 -0.042556762695312493 1985.0000000000002 -2.3232421874999996 0.0031270980834960942 -0.042556762695312493
decision_type=2 2 2 2 2 2 2
left_child=1 2 -1 -3 5 -2 -6
right_child=4 3 -4 -5 6 -7 -8
leaf_value=-0.015118032471687798 -0.01409625206664023 0.0014236266401778297 0.0025539090057123646 -0.023724390737241603 0.0039287667967607348 0.022319351948093535 0.028323202285754384
leaf_weight=350611 88407 211583 3064253 411495 45386 82448 216172
leaf_count=350611 88407 211583 3064253 411495 45386 82448 216172
internal_value=0 -0.00572567 0.00246498 -0.0506157 0.0531511 0.0115884 0.0803008
internal_weight=0 4.03794e+06 3.41486e+06 623078 432413 170855 261558
internal_count=4470355 4037942 3414864 623078 432413 170855 261558
shrinkage=0.3


Tree=33
num_leaves=8
num_cat=0
split_feature=49 45 6 17 9 6 16
split_gain=1083.44 1055.26 1334.74 1121.41 474.562 551.258 226.148
threshold=0.31188964843750006 -0.0012373924255371092 -1.3491210937499998 -1.0000000180025095e-35 7.8652343750000009 0.37219238281250006 0.061309814453125007
decision_type=2 2 2 2 2 2 2
left_child=1 2 -1 -3 5 -2 -6
right_child=4 3 -4 -5 6 -7 -8
leaf_value=0.030072652742738015 0.029571020566025272 0.011227668561165806 -0.01106886261853088 -0.0019756239386108602 0.058434445486024354 0.0037533082867439744 0.018989314663659166
leaf_weight=75533 102167 819804 1174986 1970597 29703 274189 23376
leaf_count=75533 102167 819804 1174986 1970597 29703 274189 23376
internal_value=0 -0.00447336 -0.0286129 0.00634476 0.0483571 0.0358729 0.136876
internal_weight=0 4.04092e+06 1.25052e+06 2.7904e+06 429435 376356 53079
internal_count=4470355 4040920 1250519 2790401 429435 376356 53079
shrinkage=0.3


Tree=34
num_leaves=8
num_cat=0
split_feature=46 6 17 8 44 1 2
split_gain=1144.76 1981.43 1335.51 1121.07 220.591 219.044 59.941
threshold=1.0385742187500002 7.8417968750000009 -0.0011477470397949217 6.0761718750000009 -0.088104248046874986 0.94946289062500011 -1.3364257812499998
decision_type=2 2 2 2 2 2 2
left_child=1 3 -3 -1 6 -6 -2
right_child=4 2 -4 -5 5 -7 -8
leaf_value=0.0005397105496341174 0.033382980942788375 0.0039615861284873618 -0.023568158433803447 0.020110791631700303 0.044286579392881505 0.018193509959522333 -0.0012153289087500786
leaf_weight=3296277 5373 230678 507512 286297 61739 54528 27951
leaf_count=3296277 5373 230678 507512 286297 61739 54528 27951
internal_value=0 -0.0027083 -0.0498845 0.00701236 0.0862722 0.106831 0.0145438
internal_weight=0 4.32076e+06 738190 3.58257e+06 149591 116267 33324
internal_count=4470355 4320764 738190 3582574 149591 116267 33324
shrinkage=0.3


Tree=35
num_leaves=8
num_cat=0
split_feature=49 19 16 10 0 12 19
split_gain=901.565 2059.12 1254.51 1832.2 1126.72 879.867 738.875
threshold=0.00088977813720703136 -1.0000000180025095e-35 0.029243469238281253 -1.0000000180025095e-35 8.5273437500000018 0.022300720214843753 0.046295166015625007
decision_type=2 2 2 2 2 2 2
left_child=2 5 3 -1 -3 -2 -4
right_child=1 4 6 -5 -6 -7 -8
leaf_value=0.013268903055369886 0.037964183521070803 -0.0013950396450180791 0.0075570825099978726 -0.025526233740323721 0.033283744425117688 0.01034023233112768 -0.0095877421694796974
leaf_weight=143092 185564 2395074 588855 467569 87397 235440 367364
leaf_count=143092 185564 2395074 588855 467569 87397 235440 367364
internal_value=0 0.0103864 -0.0193777 -0.0547855 -0.000580502 0.075053 0.00323439
internal_weight=0 2.90348e+06 1.56688e+06 610661 2.48247e+06 421004 956219
internal_count=4470355 2903475 1566880 610661 2482471 421004 956219
shrinkage=0.3


Tree=36
num_leaves=8
num_cat=0
split_feature=43 45 43 3 27 12 47
split_gain=1223.73 922.17 1117.31 809.552 727.359 511.448 338.426
threshold=0.0017571449279785158 -0.11813354492187499 0.33532714843750006 -3.6083984374999996 1.0000000180025095e-35 0.087219238281250014 0.16094970703125003
decision_type=2 2 2 2 2 2 2
left_child=3 5 -3 6 -5 -2 -1
right_child=1 2 -4 4 -6 -7 -8
leaf_value=-0.042289631513914724 -0.026703795330553715 0.0036610756722673166 0.026039380862226114 -0.0054713474468580598 0.041527167447450525 0.0032430641178681735 0.016087953842305023
leaf_weight=72306 129190 2166105 221315 1755936 30145 85160 10198
leaf_count=72306 129190 2166105 221315 1755936 30145 85160 10198
internal_value=0 0.0134774 0.0191185 -0.0200673 -0.0155937 -0.0493536 -0.116913
internal_weight=0 2.60177e+06 2.38742e+06 1.86859e+06 1.78608e+06 214350 82504
internal_count=4470355 2601770 2387420 1868585 1786081 214350 82504
shrinkage=0.3


Tree=37
num_leaves=8
num_cat=0
split_feature=41 13 12 49 2 16 13
split_gain=1061.07 1155.55 1177.61 1081.34 296.283 317.098 225.183
threshold=0.59301757812500011 -0.00093603134155273427 0.064453125000000014 0.077056884765625014 3.0166015625000004 0.065277099609375014 -0.030075073242187497
decision_type=2 2 2 2 2 2 2
left_child=1 2 -1 -3 6 -6 -2
right_child=4 3 -4 -5 5 -7 -8
leaf_value=0.011911261307783243 -0.026602585940827771 -0.0071592090432202223 -0.017438658372926207 0.0046260649147907874 0.064712638007273934 -0.0043445484993104751 0.021831833762225736
leaf_weight=907921 9440 2258163 142322 1015916 27080 7682 101831
leaf_count=907921 9440 2258163 142322 1015916 27080 7682 101831
internal_value=0 -0.00241609 0.0264465 -0.0116745 0.084252 0.164839 0.0590759
internal_weight=0 4.32432e+06 1.05024e+06 3.27408e+06 146033 34762 111271
internal_count=4470355 4324322 1050243 3274079 146033 34762 111271
shrinkage=0.3


Tree=38
num_leaves=8
num_cat=0
split_feature=44 40 43 41 13 37 15
split_gain=1175.37 917.208 910.008 844.428 740.332 177.452 173.189
threshold=0.59008789062500011 -0.0013031959533691404 0.10104370117187501 -0.018653869628906247 0.14263916015625003 1.0000000180025095e-35 -0.022933959960937497
decision_type=2 2 2 2 2 2 2
left_child=1 2 -1 -3 5 -2 -6
right_child=4 3 -4 -5 6 -7 -8
leaf_value=-0.012009484774331711 0.048257643582543745 -0.0078930419093036237 0.0073105481421294784 0.0043538821234215637 -0.11315042887587096 0.014486455108313336 -0.00011643824975659052
leaf_weight=1005227 77083 642499 280685 2397332 1251 17112 49166
leaf_count=1005227 77083 642499 280685 2397332 1251 17112 49166
internal_value=0 -0.00358618 -0.0259746 0.00588457 0.0880623 0.140409 -0.00973719
internal_weight=0 4.32574e+06 1.28591e+06 3.03983e+06 144612 94195 50417
internal_count=4470355 4325743 1285912 3039831 144612 94195 50417
shrinkage=0.3


Tree=39
num_leaves=8
num_cat=0
split_feature=48 47 21 18 12 45 13
split_gain=817.046 1015.9 866.937 346.848 253.813 338.793 176.931
threshold=0.41101074218750006 -0.077911376953124986 1.0000000180025095e-35 -0.0010418891906738279 0.10195922851562501 0.54565429687500011 0.27526855468750006
decision_type=2 2 2 2 2 2 2
left_child=1 3 -3 -1 5 -2 -6
right_child=4 2 -4 -5 6 -7 -8
leaf_value=7.1365911126666881e-06 0.002888408124717703 0.002689651463125347 -0.0076833991848646267 -0.025950427876441303 0.024968715813843061 0.045077687410348448 0.00060015073659453377
leaf_weight=61167 224317 2809475 977401 190984 156086 18547 32378
leaf_count=61167 224317 2809475 977401 190984 156086 18547 32378
internal_value=0 -0.00405125 4.11478e-05 -0.0655121 0.0417368 0.0203677 0.069274
internal_weight=0 4.03903e+06 3.78688e+06 252151 431328 242864 188464
internal_count=4470355 4039027 3786876 252151 431328 242864 188464
shrinkage=0.3


Tree=40
num_leaves=8
num_cat=0
split_feature=0 6 15 4 45 6 11
split_gain=845.504 969.694 2007.97 693.076 564.114 413.338 272.639
threshold=4.4824218750000009 3.8193359375000004 -0.0011773109436035154 1.2934570312500002 0.058029174804687507 1.9936523437500002 0.041458129882812507
decision_type=2 2 2 2 2 2 2
left_child=1 3 -3 -1 5 -2 -6
right_child=4 2 -4 -5 6 -7 -8
leaf_value=0.0049619534085774755 0.021927967440023795 -0.028818827044492457 -0.0010598321720980907 -0.0054293410025000816 0.033429827965492161 0.000878704248215264 0.0084652279506141504
leaf_weight=1727678 103237 328087 822419 867857 110151 449654 61272
leaf_count=1727678 103237 328087 822419 867857 110151 449654 61272
internal_value=0 -0.00575358 -0.0299193 0.00495821 0.0315696 0.0160302 0.081689
internal_weight=0 3.74604e+06 1.15051e+06 2.59554e+06 724314 552891 171423
internal_count=4470355 3746041 1150506 2595535 724314 552891 171423
shrinkage=0.3


Tree=41
num_leaves=8
num_cat=0
split_feature=5 15 6 6 15 9 1
split_gain=814.787 1578.63 1791.07 1317.1 1373.14 1114.41 587.842
threshold=-0.19171142578124997 -0.0011773109436035154 -0.49108886718749994 0.78881835937500011 -1.0000000180025095e-35 -1.1870117187499998 -4.1035156249999991
decision_type=2 2 2 2 2 2 2
left_child=3 2 -2 4 -1 -3 -5
right_child=1 5 -4 6 -6 -7 -8
leaf_value=0.03277987118930361 0.019177790065937329 0.018447905612094962 -0.027340825829886718 0.015242476394636497 0.0026458523843434323 -0.0024932832397215783 -0.0030748391310726551
leaf_weight=261887 91365 260402 403320 183875 283340 1879280 1106886
leaf_count=261887 91365 260402 403320 183875 283340 1879280 1106886
internal_value=0 -0.0115861 -0.0624972 0.0158562 0.0570667 0.000184286 -0.0015515
internal_weight=0 2.63437e+06 494685 1.83599e+06 545227 2.13968e+06 1.29076e+06
internal_count=4470355 2634367 494685 1835988 545227 2139682 1290761
shrinkage=0.3


Tree=42
num_leaves=8
num_cat=0
split_feature=8 12 36 10 0 0 6
split_gain=795.423 778.053 818.045 778.086 332.173 200.236 118.696
threshold=8.4882812500000018 1.0000000180025095e-35 1.0000000180025095e-35 -1.0000000180025095e-35 3.0146484375000004 1.9624023437500002 9.0195312500000018
decision_type=2 2 2 2 2 2 2
left_child=1 3 -3 -1 5 -2 -6
right_child=4 2 -4 -5 6 -7 -8
leaf_value=-0.013173218857109084 0.019599396068640862 7.6349139694456449e-06 -0.011931029559612847 0.019931804261951017 0.05435475944604868 -0.013468073700599071 0.022397757733235265
leaf_weight=82188 73069 3349913 610715 287118 30015 21281 16056
leaf_count=82188 73069 3349913 610715 287118 30015 21281 16056
internal_value=0 -0.00201757 -0.00611088 0.0418813 0.0744564 0.0404697 0.144059
internal_weight=0 4.32993e+06 3.96063e+06 369306 140421 94350 46071
internal_count=4470355 4329934 3960628 369306 140421 94350 46071
shrinkage=0.3


Tree=43
num_leaves=8
num_cat=0
split_feature=42 43 45 46 2 5 45
split_gain=797.34 814.456 860.563 418.449 403.023 160.121 120.495
threshold=0.81909179687500011 -0.040298461914062493 -0.25134277343749994 -0.12149047851562499 -1.7260742187499998 2.7021484375000004 0.54565429687500011
decision_type=2 2 2 2 2 2 2
left_child=1 4 -3 5 -1 -2 -5
right_child=3 2 -4 6 -6 -7 -8
leaf_value=0.0065450280069764928 -0.05056927694682968 -0.026310442300884928 0.0011138354162454529 0.02351526791144232 -0.017672681932468699 0.015967386994993924 0.050973530135290018
leaf_weight=75003 9242 105855 3792268 113968 352533 5025 16461
leaf_count=75003 9242 105855 3792268 113968 352533 5025 16461
internal_value=0 -0.0033139 0.0012304 0.0721498 -0.0447472 -0.0904477 0.0899356
internal_weight=0 4.32566e+06 3.89812e+06 144696 427536 14267 130429
internal_count=4470355 4325659 3898123 144696 427536 14267 130429
shrinkage=0.3


Tree=44
num_leaves=8
num_cat=0
split_feature=44 19 48 4 40 16 15
split_gain=815.759 1499.46 915.992 748.655 598.652 414.325 251.994
threshold=-0.0031194686889648433 0.19860839843750003 0.033218383789062507 6.6992187500000009 -0.17388916015624997 0.044662475585937507 -0.0032110214233398433
decision_type=2 2 2 2 2 2 2
left_child=1 2 -1 4 -2 -3 -5
right_child=3 5 -4 6 -6 -7 -8
leaf_value=-0.016631162621001561 -0.020586329981578343 0.04378000517140198 0.00041766886140319178 0.0018869253974632628 0.0025488504179568827 0.0061566839064177946 0.033796805554861781
leaf_weight=672937 104188 61227 490255 29562 2975613 46237 90336
leaf_count=672937 104188 61227 490255 29562 2975613 46237 90336
internal_value=0 -0.0210437 -0.0314851 0.00890541 0.00588733 0.0919745 0.0864304
internal_weight=0 1.27066e+06 1.16319e+06 3.1997e+06 3.0798e+06 107464 119898
internal_count=4470355 1270656 1163192 3199699 3079801 107464 119898
shrinkage=0.3


Tree=45
num_leaves=8
num_cat=0
split_feature=3 13 10 49 13 16 45
split_gain=753.051 863.946 1492.32 872.391 423.113 330.506 138.798
threshold=5.1035156250000009 -0.0023565292358398433 0.069458007812500014 0.14910888671875003 0.092437744140625014 0.014080047607421877 -0.25134277343749994
decision_type=2 2 2 2 2 2 2
left_child=1 2 -1 -3 5 -2 -6
right_child=4 3 -4 -5 6 -7 -8
leaf_value=0.014202119663572977 -0.020369213188932825 -0.005372344491040645 -0.014700374958014394 0.0064093064788430876 0.01522627520383291 0.021056487721867922 0.065983484471072149
leaf_weight=694875 21281 2708791 209181 714932 6252 93440 21603
leaf_count=694875 21281 2708791 209181 714932 6252 93440 21603
internal_value=0 -0.00244674 0.0250488 -0.00970711 0.0714163 0.0445731 0.18197
internal_weight=0 4.32778e+06 904056 3.42372e+06 142576 114721 27855
internal_count=4470355 4327779 904056 3423723 142576 114721 27855
shrinkage=0.3


Tree=46
num_leaves=8
num_cat=0
split_feature=47 27 49 14 14 4 13
split_gain=754.619 743.096 583.855 379.415 330.757 333.15 192.044
threshold=0.36828613281250006 1.0000000180025095e-35 0.0080986022949218767 0.037612915039062507 0.090118408203125014 0.58715820312500011 -0.030075073242187497
decision_type=2 2 2 2 2 2 2
left_child=1 2 -1 -3 5 -2 -6
right_child=4 3 -4 -5 6 -7 -8
leaf_value=-0.0053607770942212356 0.037351533238736294 0.04669591013175594 0.0018064400905392084 -0.01649793438790113 -0.018611399104677993 0.0068232326559708812 0.01012081744733653
leaf_weight=1858070 84225 42972 2275885 10675 25310 52056 121162
leaf_count=1858070 84225 42972 2275885 10675 25310 52056 121162
internal_value=0 -0.00319908 -0.00471659 0.113737 0.0501772 0.0856349 0.0171865
internal_weight=0 4.1876e+06 4.13396e+06 53647 282753 136281 146472
internal_count=4470355 4187602 4133955 53647 282753 136281 146472
shrinkage=0.3


Tree=47
num_leaves=8
num_cat=0
split_feature=48 16 17 44 12 8 15
split_gain=700.469 1037.93 1548.24 703.314 651.562 602.842 351.466
threshold=0.00078606605529785167 0.016822814941406253 -1.0000000180025095e-35 -0.051406860351562493 0.043090820312500007 5.2949218750000009 0.20538330078125003
decision_type=2 2 2 2 2 2 2
left_child=1 2 -1 6 -3 -5 -2
right_child=3 4 -4 5 -6 -7 -8
leaf_value=0.0056710418546813447 -0.01475816534822931 0.0036633693402564052 -0.032397205224010288 0.0023582524285852666 -0.012064918530260526 0.015124017384116333 0.015583309259531785
leaf_weight=153669 267999 863370 256886 2168954 326764 393300 39413
leaf_count=153669 267999 863370 256886 2168954 326764 393300 39413
internal_value=0 -0.0171394 -0.0604947 0.00896995 -0.00218333 0.0143926 -0.036227
internal_weight=0 1.60069e+06 410555 2.86967e+06 1.19013e+06 2.56225e+06 307412
internal_count=4470355 1600689 410555 2869666 1190134 2562254 307412
shrinkage=0.3


Tree=48
num_leaves=8
num_cat=0
split_feature=46 6 16 41 6 5 16
split_gain=816.021 803.531 842.274 732.15 213.847 214.181 175.129
threshold=1.0385742187500002 6.7480468750000009 0.016822814941406253 -0.078216552734374986 20.179687500000004 -5.5878906249999991 0.085205078125000014
decision_type=2 2 2 2 2 2 2
left_child=1 3 -3 -1 5 -2 -6
right_child=4 2 -4 -5 6 -7 -8
leaf_value=-0.012178465771902645 -0.018404157726948187 -0.02180443723611698 -0.0022543950537390225 0.0026758539436293085 0.02768644901455742 0.02006322431394585 0.070786009427326255
leaf_weight=330401 15153 300288 584171 3105872 29761 92840 11869
leaf_count=330401 15153 300288 584171 3105872 29761 92840 11869
internal_value=0 -0.00275993 -0.0296398 0.00415866 0.072358 0.0488856 0.133248
internal_weight=0 4.32073e+06 884459 3.43627e+06 149623 107993 41630
internal_count=4470355 4320732 884459 3436273 149623 107993 41630
shrinkage=0.3


Tree=49
num_leaves=8
num_cat=0
split_feature=1 45 5 12 7 9 6
split_gain=681.599 605.506 834.659 799.971 352.033 561.374 258.625
threshold=-5.2207031249999991 0.26354980468750006 0.98266601562500011 0.10195922851562501 1.5112304687500002 6.3535156250000009 15.574218750000002
decision_type=2 2 2 2 2 2 2
left_child=4 2 -2 -3 6 -6 -1
right_child=1 3 -4 -5 5 -7 -8
leaf_value=0.040270747231477132 0.0014247534085923325 0.022946198311500379 -0.0078664444455609581 -0.0031468304824176889 0.003105313709371517 0.053047699933373785 0.13206130336132363
leaf_weight=23997 2581256 217159 1312711 206117 100632 25361 3122
leaf_count=23997 2581256 217159 1312711 206117 100632 25361 3122
internal_value=0 -0.00178691 -0.00569147 0.0341334 0.0661065 0.0438605 0.16946
internal_weight=0 4.31724e+06 3.89397e+06 423276 153112 125993 27119
internal_count=4470355 4317243 3893967 423276 153112 125993 27119
shrinkage=0.3


Tree=50
num_leaves=8
num_cat=0
split_feature=23 24 41 24 13 20 49
split_gain=664.021 1620.31 1380.02 951.698 705.746 636.167 587.389
threshold=1.0000000180025095e-35 1.0000000180025095e-35 0.049545288085937507 1.0000000180025095e-35 0.014377593994140627 1985.0000000000002 -0.16571044921874997
decision_type=2 2 2 2 2 2 2
left_child=1 6 -3 4 -2 -5 -1
right_child=3 2 -4 5 -6 -7 -8
leaf_value=-0.018162178786634984 0.070407593228759169 -0.046982251095415095 0.01305452295340132 -0.021045214993249409 -0.020529563011038459 0.016367481053741001 0.0012508783371592124
leaf_weight=145506 39447 118815 48534 56189 9538 150379 3901947
leaf_count=145506 39447 118815 48534 56189 9538 150379 3901947
internal_value=0 -0.0021436 -0.0985686 0.0503532 0.17567 0.0206359 0.00184326
internal_weight=0 4.2148e+06 167349 255553 48985 206568 4.04745e+06
internal_count=4470355 4214802 167349 255553 48985 206568 4047453
shrinkage=0.3


Tree=51
num_leaves=8
num_cat=0
split_feature=41 10 16 16 16 6 2
split_gain=568.715 672.326 1493.1 1131.56 523.335 478.208 303.725
threshold=0.38000488281250006 0.032196044921875007 0.077117919921875014 0.014080047607421877 0.061309814453125007 -1.9790039062499998 -3.5029296874999996
decision_type=2 2 2 2 2 2 2
left_child=1 3 -3 -1 5 -2 -6
right_child=4 2 -4 -5 6 -7 -8
leaf_value=-0.0087150994498316654 0.043093400867085352 -0.010763447279374767 0.0081128233419557796 0.0062977284822285798 0.020972041318325373 0.010381569105907099 -0.011731256625344246
leaf_weight=609490 68179 1292482 532524 1747020 36321 98082 86257
leaf_count=609490 68179 1292482 532524 1747020 36321 98082 86257
internal_value=0 -0.00310956 -0.0175183 0.00804932 0.0427705 0.0793193 -0.00680322
internal_weight=0 4.18152e+06 1.82501e+06 2.35651e+06 288839 166261 122578
internal_count=4470355 4181516 1825006 2356510 288839 166261 122578
shrinkage=0.3


Tree=52
num_leaves=8
num_cat=0
split_feature=0 28 43 0 16 5 16
split_gain=697.602 666.567 499.4 463.148 389.2 349.459 238.728
threshold=5.9003906250000009 1.0000000180025095e-35 -0.071685791015624986 -1.9526367187499998 0.065277099609375014 0.18499755859375003 0.016822814941406253
decision_type=2 2 2 2 2 2 2
left_child=2 6 5 -4 -3 -1 -2
right_child=1 4 3 -5 -6 -7 -8
leaf_value=0.001056930789918114 0.0063010945877812205 0.0042250485196245295 0.0087267225734771626 -0.0015924429877655793 -0.030872863248449602 -0.021280109240156327 0.025299579231054015
leaf_weight=96447 84111 105608 443845 3315816 38912 181963 203653
leaf_count=96447 84111 105608 443845 3315816 38912 181963 203653
internal_value=0 0.0379935 -0.00427365 -0.0012474 -0.0174169 -0.0451403 0.0658216
internal_weight=0 432284 4.03807e+06 3.75966e+06 144520 278410 287764
internal_count=4470355 432284 4038071 3759661 144520 278410 287764
shrinkage=0.3


Tree=53
num_leaves=8
num_cat=0
split_feature=44 19 45 12 12 16 29
split_gain=619.708 842.344 439.961 710.742 523.268 241.477 226.384
threshold=0.38122558593750006 0.090423583984375014 -0.039199829101562493 0.087219238281250014 0.043090820312500007 0.091735839843750014 1.0000000180025095e-35
decision_type=2 2 2 2 2 2 2
left_child=2 5 3 -1 -4 -2 -3
right_child=1 6 4 -5 -6 -7 -8
leaf_value=-0.015228995096054961 0.03909799278016745 -0.0093961506922065289 0.0027493632872406504 0.009888547202707482 -0.0049907092218788376 0.015155503159872916 0.023055835488189656
leaf_weight=401448 86860 111940 2496374 135652 1147415 67277 23389
leaf_count=401448 86860 111940 2496374 135652 1147415 67277 23389
internal_value=0 0.0449462 -0.00289829 -0.0296174 0.00104015 0.0954923 -0.0126248
internal_weight=0 289466 4.18089e+06 537100 3.64379e+06 154137 135329
internal_count=4470355 289466 4180889 537100 3643789 154137 135329
shrinkage=0.3


Tree=54
num_leaves=8
num_cat=0
split_feature=40 44 18 49 6 16 11
split_gain=734.1 659.367 969.443 551.833 537.014 478.787 281.045
threshold=0.25573730468750006 -0.0064792633056640616 0.0051288604736328134 -0.025337219238281247 -0.21661376953124997 0.085205078125000014 0.041458129882812507
decision_type=2 2 2 2 2 2 2
left_child=1 2 -1 -3 5 -2 -6
right_child=4 3 -4 -5 6 -7 -8
leaf_value=-0.021026280955193731 0.039519710436898552 -0.0098503868234924071 -0.00074156660615804794 0.0021936082273363716 0.012257933813719056 -0.0082489636302467469 -0.0022525410193083941
leaf_weight=348958 84537 394428 540448 2594652 258852 24316 224164
leaf_count=348958 84537 394428 540448 2594652 258852 24316 224164
internal_value=0 -0.00509794 -0.0290009 0.00201442 0.0327119 0.0961632 0.0184124
internal_weight=0 3.87849e+06 889406 2.98908e+06 591869 108853 483016
internal_count=4470355 3878486 889406 2989080 591869 108853 483016
shrinkage=0.3


Tree=55
num_leaves=8
num_cat=0
split_feature=47 46 6 10 10 40 14
split_gain=559.891 502.969 793.633 541.278 244.609 226.27 154.067
threshold=0.56616210937500011 -0.12149047851562499 -1.3491210937499998 0.052230834960937507 0.18548583984375003 0.19561767578125003 0.15954589843750003
decision_type=2 2 2 2 2 2 2
left_child=1 3 -3 -1 6 -6 -2
right_child=4 2 -4 -5 5 -7 -8
leaf_value=-0.038336332531014781 0.031564948603200818 0.014267069178197745 -0.0013063096213050804 -5.0397600347528443e-05 -0.042165879874042619 0.014172623814895265 0.00736966188647078
leaf_weight=65343 81309 318721 3876613 67633 10300 17014 33422
leaf_count=65343 81309 318721 3876613 67633 10300 17014 33422
internal_value=0 -0.00232983 -0.000410649 -0.062879 0.0614746 -0.0235747 0.0817223
internal_weight=0 4.32831e+06 4.19533e+06 132976 142045 27314 114731
internal_count=4470355 4328310 4195334 132976 142045 27314 114731
shrinkage=0.3


Tree=56
num_leaves=8
num_cat=0
split_feature=42 10 0 13 14 13 19
split_gain=566.7 635.86 1212.99 649.143 302.497 359.443 223.432
threshold=0.39953613281250006 0.069458007812500014 0.51782226562500011 -0.0023565292358398433 0.0055561065673828134 0.063598632812500014 0.052001953125000007
decision_type=2 2 2 2 2 2 2
left_child=1 3 -3 -1 5 -2 -6
right_child=4 2 -4 -5 6 -7 -8
leaf_value=0.0091372788809019542 0.01503576471493985 -0.020710984629189057 0.00027790746914756458 -0.001395427441004161 -0.0053127186893686161 0.061677154940162265 0.011289961410166154
leaf_weight=683617 56718 394634 666078 2293200 102422 20155 253531
leaf_count=683617 56718 394634 666078 2293200 102422 20155 253531
internal_value=0 -0.00407984 -0.0251031 0.00341126 0.0339945 0.0908816 0.021709
internal_weight=0 4.03753e+06 1.06071e+06 2.97682e+06 432826 76873 355953
internal_count=4470355 4037529 1060712 2976817 432826 76873 355953
shrinkage=0.3


Tree=57
num_leaves=8
num_cat=0
split_feature=9 15 19 6 2 9 6
split_gain=495.474 1735.41 2109.28 1135.03 749.232 688.993 368.291
threshold=-0.16094970703124997 -0.0011773109436035154 0.022315979003906253 2.3662109375000004 10.660156250000002 5.3613281250000009 9.0195312500000018
decision_type=2 2 2 2 2 2 2
left_child=1 3 -3 -1 5 -2 -6
right_child=4 2 -4 -5 6 -7 -8
leaf_value=0.003433496479142623 -0.0048340416307609468 0.0264709176104907 -0.0027325142834198177 -0.027307578489796733 0.06549384409014869 0.0085989362403782812 0.015678635231919764
leaf_weight=231034 2662717 454924 435851 203144 16415 394570 71700
leaf_count=231034 2662717 454924 435851 203144 16415 394570 71700
internal_value=0 0.0153393 0.0406062 -0.036499 -0.0077145 -0.0103347 0.0831958
internal_weight=0 1.32495e+06 890775 434178 3.1454e+06 3.05729e+06 88115
internal_count=4470355 1324953 890775 434178 3145402 3057287 88115
shrinkage=0.3


Tree=58
num_leaves=8
num_cat=0
split_feature=43 15 48 40 43 16 6
split_gain=561.014 576.302 522.038 657.546 428.199 418.789 253.64
threshold=0.037155151367187507 0.068450927734375014 0.21588134765625003 -0.036392211914062493 0.17230224609375003 0.014080047607421877 1.3344726562500002
decision_type=2 2 2 2 2 2 2
left_child=2 4 3 -1 -2 -3 -4
right_child=1 5 6 -5 -6 -7 -8
leaf_value=-0.019028166281507202 0.0054472380642205769 0.013401050233223967 0.015890483004406018 -0.0022235476538237705 0.01981030494937016 -0.0065410891927558277 0.0010528333509038357
leaf_weight=229802 600163 120019 187861 2379262 271231 450599 231418
leaf_count=229802 600163 120019 187861 2379262 271231 450599 231418
internal_value=0 0.0168824 -0.00708227 -0.0123456 0.0330597 -0.00782209 0.0256698
internal_weight=0 1.44201e+06 3.02834e+06 2.60906e+06 871394 570618 419279
internal_count=4470355 1442012 3028343 2609064 871394 570618 419279
shrinkage=0.3


Tree=59
num_leaves=8
num_cat=0
split_feature=47 48 44 44 16 4 44
split_gain=466.217 571.736 492.602 338.598 211.531 395.872 209.932
threshold=0.26916503906250006 0.00078606605529785167 0.0023012161254882817 -0.088104248046874986 0.035476684570312507 0.74487304687500011 -0.088104248046874986
decision_type=2 2 2 2 2 2 2
left_child=1 2 -1 -3 5 -2 -6
right_child=4 3 -4 -5 6 -7 -8
leaf_value=-0.012225154702138937 0.010897974599644001 -0.011454353912336181 -0.00091881920702120625 0.0025749251571047867 -0.0028850070484354143 -0.028795130471022154 0.016973834357721134
leaf_weight=608612 67666 165193 806243 2468191 58637 33964 261849
leaf_count=608612 67666 165193 806243 2468191 58637 33964 261849
internal_value=0 -0.00306136 -0.0192745 0.00564955 0.031862 -0.00789057 0.044468
internal_weight=0 4.04824e+06 1.41486e+06 2.63338e+06 422116 101630 320486
internal_count=4470355 4048239 1414855 2633384 422116 101630 320486
shrinkage=0.3


Tree=60
num_leaves=8
num_cat=0
split_feature=7 24 47 10 1 0 2
split_gain=438.218 866.655 780.109 760.726 668.865 434.124 313.099
threshold=-0.54028320312499989 1.0000000180025095e-35 -0.16607666015624997 -0.0014710426330566404 0.53002929687500011 -1.1323242187499998 5.8886718750000009
decision_type=2 2 2 2 2 2 2
left_child=2 5 6 -4 -3 -2 -1
right_child=1 4 3 -5 -6 -7 -8
leaf_value=-0.020632867077016191 0.0076233273280642789 -0.031222959265749396 -0.0065857741301383332 0.012208606611289478 0.0010517256329157002 -0.0020214607650715318 0.015626843940028518
leaf_weight=132998 505283 151920 254000 818177 93271 2489156 25550
leaf_count=132998 505283 151920 254000 818177 93271 2489156 25550
internal_value=0 -0.00599358 0.0161724 0.025854 -0.0631521 -0.00131332 -0.0492987
internal_weight=0 3.23963e+06 1.23073e+06 1.07218e+06 245191 2.99444e+06 158548
internal_count=4470355 3239630 1230725 1072177 245191 2994439 158548
shrinkage=0.3


Tree=61
num_leaves=8
num_cat=0
split_feature=45 36 23 3 17 36 31
split_gain=467.631 579.715 622.263 525.42 400.949 309.362 48.2484
threshold=0.54565429687500011 1.0000000180025095e-35 1.0000000180025095e-35 2.7373046875000004 0.060806274414062507 1.0000000180025095e-35 1.0000000180025095e-35
decision_type=2 2 2 2 2 2 2
left_child=1 3 -3 -1 6 -6 -2
right_child=4 2 -4 -5 5 -7 -8
leaf_value=-0.0007713454295707003 0.051333025605854711 -0.01080091738930679 0.034140387712810888 0.0087821365890067664 0.00021839753975016674 0.032621878980915703 0.10007298050147197
leaf_weight=3045646 17885 628610 29008 624322 84125 38723 2036
leaf_count=3045646 17885 628610 29008 624322 84125 38723 2036
internal_value=0 -0.00205317 -0.0293951 0.0028462 0.0561146 0.0347744 0.187715
internal_weight=0 4.32759e+06 657618 3.66997e+06 142769 122848 19921
internal_count=4470355 4327586 657618 3669968 142769 122848 19921
shrinkage=0.3


Tree=62
num_leaves=8
num_cat=0
split_feature=48 47 7 17 18 42 8
split_gain=411.275 404.437 547.506 512.245 101.589 96.7678 66.4229
threshold=0.92797851562500011 -0.024009704589843747 -0.15631103515624997 0.19824218750000003 0.29528808593750006 -0.0015120506286621092 6.0761718750000009
decision_type=2 2 2 2 2 2 2
left_child=1 3 -3 -1 6 -6 -2
right_child=4 2 -4 -5 5 -7 -8
leaf_value=-0.0053750425702804947 0.00059232542539149611 0.0066438405509082737 -0.0016188030841576613 -0.039248162232570619 0.0099732447681760254 0.038794939406464349 0.0165683247883661
leaf_weight=565883 38212 980118 2738122 43251 17063 27192 60514
leaf_count=565883 38212 980118 2738122 43251 17063 27192 60514
internal_value=0 -0.00204889 0.00186402 -0.0259339 0.0524623 0.0922747 0.034616
internal_weight=0 4.32737e+06 3.71824e+06 609134 142981 44255 98726
internal_count=4470355 4327374 3718240 609134 142981 44255 98726
shrinkage=0.3


Tree=63
num_leaves=8
num_cat=0
split_feature=44 49 42 16 49 15 2
split_gain=444.67 342.834 552.131 227.951 108.581 79.6065 58.2376
threshold=0.59008789062500011 0.64575195312500011 -0.090606689453124986 0.071014404296875014 -0.16571044921874997 0.16131591796875003 3.4599609375000004
decision_type=2 2 2 2 2 2 2
left_child=1 2 -1 -3 6 -6 -2
right_child=4 3 -4 -5 5 -7 -8
leaf_value=-0.014320726027432652 -0.0153509686652154 0.024764171537504771 2.900863795039649e-05 -0.00054116081566349178 0.023420580583517064 0.0041790923901818353 0.021565497226113506
leaf_weight=257085 13358 79781 3935835 53536 101446 23913 5401
leaf_count=257085 13358 79781 3935835 53536 101446 23913 5401
internal_value=0 -0.00124876 -0.00283611 0.0486744 0.0552158 0.0658338 -0.0157405
internal_weight=0 4.32624e+06 4.19292e+06 133317 144118 125359 18759
internal_count=4470355 4326237 4192920 133317 144118 125359 18759
shrinkage=0.3


Tree=64
num_leaves=8
num_cat=0
split_feature=6 46 20 19 40 8 3
split_gain=405.866 807.937 719.818 481.287 450.997 793.773 275.831
threshold=3.8193359375000004 0.56176757812500011 1965.0000000000002 0.046295166015625007 0.034164428710937507 -2.8408203124999996 0.27941894531250006
decision_type=2 2 2 2 2 2 2
left_child=4 2 -2 -3 6 -6 -1
right_child=1 3 -4 -5 5 -7 -8
leaf_value=-0.0055781328951761498 0.014802637672692517 0.016585213207134724 -0.010205361493057126 -0.0033917217283339664 0.03715713050865202 0.0048138523575888981 0.0022012621236504504
leaf_weight=668236 114703 234001 1068945 202440 73059 1046683 1062288
leaf_count=668236 114703 234001 1068945 202440 73059 1046683 1062288
internal_value=0 -0.0123794 -0.0259398 0.0243969 0.0074427 0.0230804 -0.00267575
internal_weight=0 1.62009e+06 1.18365e+06 436441 2.85027e+06 1.11974e+06 1.73052e+06
internal_count=4470355 1620089 1183648 436441 2850266 1119742 1730524
shrinkage=0.3


Tree=65
num_leaves=8
num_cat=0
split_feature=45 17 41 10 10 16 16
split_gain=376.184 927.281 772.193 902.472 757.042 563.788 535.709
threshold=0.073089599609375014 0.031677246093750007 0.26574707031250006 0.012664794921875002 -0.0014710426330566404 0.077117919921875014 0.061309814453125007
decision_type=2 2 2 2 2 2 2
left_child=2 4 3 -1 -2 -3 -4
right_child=1 5 6 -5 -6 -7 -8
leaf_value=0.0029542713611252045 -0.0088255442381388258 -0.0082125527363709743 0.029526544252000513 -0.0072926975169981378 0.023968969454667619 0.0081420393289319722 -0.002579323566506335
leaf_weight=1409512 80556 440905 117750 1714427 296638 332969 77598
leaf_count=1409512 80556 440905 117750 1714427 296638 332969 77598
internal_value=0 0.0158961 -0.00508354 -0.00889765 0.0565505 -0.00391928 0.0559105
internal_weight=0 1.15107e+06 3.31929e+06 3.12394e+06 377194 773874 195348
internal_count=4470355 1151068 3319287 3123939 377194 773874 195348
shrinkage=0.3


Tree=66
num_leaves=8
num_cat=0
split_feature=40 45 8 22 20 18 2
split_gain=327.598 442.246 582.524 390.147 151.307 155.761 43.1586
threshold=0.72143554687500011 -0.11813354492187499 3.6103515625000004 1.0000000180025095e-35 1965.0000000000002 0.015815734863281253 -3.5029296874999996
decision_type=2 2 2 2 2 2 2
left_child=1 2 -1 -3 6 -6 -2
right_child=4 3 -4 -5 5 -7 -8
leaf_value=-0.022388436394224907 0.055674282452899349 0.0017763039806717226 0.006682689105821287 -0.0055238412073637475 0.03655103746458159 0.011117142686487161 -0.03677664969300825
leaf_weight=177043 490 3220478 95495 828356 26673 115556 6264
leaf_count=177043 490 3220478 95495 828356 26673 115556 6264
internal_value=0 -0.00168211 -0.0406739 0.000942527 0.0460117 0.0529563 -0.100231
internal_weight=0 4.32137e+06 272538 4.04883e+06 148983 142229 6754
internal_count=4470355 4321372 272538 4048834 148983 142229 6754
shrinkage=0.3


Tree=67
num_leaves=8
num_cat=0
split_feature=43 1 9 49 17 18 7
split_gain=377.354 362.396 464.09 395.244 185.159 100.217 85.1149
threshold=0.52856445312500011 -4.1035156249999991 -1.1870117187499998 1.0000000180025095e-35 0.078247070312500014 0.025978088378906253 3.8193359375000004
decision_type=2 2 2 2 2 2 2
left_child=1 2 -1 -3 5 -2 -6
right_child=4 3 -4 -5 6 -7 -8
leaf_value=0.04627047735557395 0.055261972803740719 -0.0054883096918100938 0.0058311607862752681 0.00087672161949257281 0.0058681296558277122 0.021661750750401696 0.029834643146816549
leaf_weight=28162 13044 1294338 274425 2729823 94417 20616 15530
leaf_count=28162 13044 1294338 274425 2729823 94417 20616 15530
internal_value=0 -0.00139223 0.0319829 -0.00390179 0.0507125 0.115609 0.0308447
internal_weight=0 4.32675e+06 302587 4.02416e+06 143607 33660 109947
internal_count=4470355 4326748 302587 4024161 143607 33660 109947
shrinkage=0.3


Tree=68
num_leaves=8
num_cat=0
split_feature=10 6 5 10 11 11 2
split_gain=455.255 806.465 977.097 770.533 506.39 638.566 358.297
threshold=-0.0014710426330566404 1.3344726562500002 1.0000000180025095e-35 0.012664794921875002 0.049118041992187507 -0.013332366943359373 -0.70678710937499989
decision_type=2 2 2 2 2 2 2
left_child=4 2 -2 -3 5 -1 -6
right_child=1 3 -4 -5 6 -7 -8
leaf_value=-0.036707512164159323 0.015074083181173059 0.0060085105914930255 0.00029029435538785448 -0.0068433278902721483 -0.0040175585298573655 0.0010479260056022158 -0.027554496994665768
leaf_weight=43516 665416 610867 1017757 1342759 97802 548455 143783
leaf_count=43516 665416 610867 1017757 1342759 97802 548455 143783
internal_value=0 0.0044063 0.0204494 -0.00941589 -0.0215039 -0.0057583 -0.0600864
internal_weight=0 3.6368e+06 1.68317e+06 1.95363e+06 833556 591971 241585
internal_count=4470355 3636799 1683173 1953626 833556 591971 241585
shrinkage=0.3


Tree=69
num_leaves=8
num_cat=0
split_feature=16 6 20 14 2 7 1
split_gain=400.022 1319.01 1157.84 1000.36 1309.18 744.262 576.148
threshold=0.029243469238281253 0.37219238281250006 1965.0000000000002 1.0000000180025095e-35 -0.70678710937499989 0.90454101562500011 -0.17633056640624997
decision_type=2 2 2 2 2 2 2
left_child=1 5 -3 6 -5 -1 -2
right_child=3 2 -4 4 -6 -7 -8
leaf_value=0.019341112802760407 0.022335596568904863 0.0217982097696259 -0.012596084351269458 0.0097147495681377278 -0.0057015615644472146 -0.0035825468149951866 0.0035375496182319392
leaf_weight=277518 301363 96518 1008550 733055 1531597 235752 286002
leaf_count=277518 301363 96518 1008550 733055 1531597 235752 286002
internal_value=0 -0.0125168 -0.0319735 0.00716665 -0.0023713 0.0293732 0.0439413
internal_weight=0 1.61834e+06 1.10507e+06 2.85202e+06 2.26465e+06 513270 587365
internal_count=4470355 1618338 1105068 2852017 2264652 513270 587365
shrinkage=0.3


Tree=70
num_leaves=8
num_cat=0
split_feature=42 45 25 5 46 35 17
split_gain=423.503 645.236 633.787 487.124 324.567 209.814 167.144
threshold=0.18182373046875003 -0.065643310546874986 1.0000000180025095e-35 4.9902343750000009 0.72827148437500011 1.0000000180025095e-35 1.0000000180025095e-35
decision_type=2 2 2 2 2 2 2
left_child=1 4 6 -3 -1 -4 -2
right_child=2 3 5 -5 -6 -7 -8
leaf_value=-0.019909207040446148 0.00033740730640879527 -0.00094386740387452826 -0.011242541670705524 0.017794833117915632 0.0058785149164658273 0.0059989881038036976 0.013979612768414891
leaf_weight=232682 97066 3186385 192019 129946 54148 94924 483185
leaf_count=232682 97066 3186385 192019 129946 54148 94924 483185
internal_value=0 -0.00463423 0.0199808 -0.000698722 -0.0501366 -0.0184628 0.0389917
internal_weight=0 3.60316e+06 867194 3.31633e+06 286830 286943 580251
internal_count=4470355 3603161 867194 3316331 286830 286943 580251
shrinkage=0.3


Tree=71
num_leaves=8
num_cat=0
split_feature=0 6 9 16 9 15 4
split_gain=375.259 749.976 1043.62 454.165 425.224 1046.26 455.632
threshold=8.5273437500000018 20.179687500000004 1.0000000180025095e-35 0.047958374023437507 -0.16094970703124997 -0.0032110214233398433 6.6992187500000009
decision_type=2 2 2 2 2 2 2
left_child=4 3 -3 -2 5 -1 -6
right_child=1 2 -4 -5 6 -7 -8
leaf_value=-0.0094111862232477625 0.034014422463987032 -0.13251880793645998 0.03311322820804509 -0.0035006923167853641 -0.0031105840421742767 0.009478867352876107 0.017398061006621394
leaf_weight=369718 89671 7030 6674 42956 2931599 921858 100849
leaf_count=369718 89671 7030 6674 42956 2931599 921858 100849
internal_value=0 0.0498669 -0.172847 0.0728794 -0.00162327 0.0135718 -0.00809512
internal_weight=0 146331 13704 132627 4.32402e+06 1.29158e+06 3.03245e+06
internal_count=4470355 146331 13704 132627 4324024 1291576 3032448
shrinkage=0.3


Tree=72
num_leaves=8
num_cat=0
split_feature=8 3 4 1 0 48 9
split_gain=332.272 344.61 379.605 194.376 211.83 139.119 124.613
threshold=8.4882812500000018 5.1035156250000009 -2.3232421874999996 0.94946289062500011 6.9667968750000009 0.094512939453125014 0.13836669921875003
decision_type=2 2 2 2 2 2 2
left_child=1 2 -1 4 -2 -5 -3
right_child=3 6 -4 5 -6 -7 -8
leaf_value=-0.00982461763062536 0.016652001460924905 0.028906058735656017 -5.4988374150373284e-05 -0.031263362270299806 0.068916405318260585 0.010019364779124745 0.0087380338773749705
leaf_weight=395261 102566 37304 3791665 12449 7489 17925 105696
leaf_count=395261 102566 37304 3791665 12449 7489 17925 105696
internal_value=0 -0.00160888 -0.00325759 0.0478164 0.0673616 -0.0230022 0.046664
internal_weight=0 4.32993e+06 4.18693e+06 140429 110055 30374 143000
internal_count=4470355 4329926 4186926 140429 110055 30374 143000
shrinkage=0.3


Tree=73
num_leaves=8
num_cat=0
split_feature=49 14 19 13 14 46 19
split_gain=325.286 375.77 586.793 436.352 350.761 225.744 130.988
threshold=0.31188964843750006 0.10415649414062501 0.046295166015625007 0.079864501953125014 0.025436401367187503 0.18634033203125003 0.19860839843750003
decision_type=2 2 2 2 2 2 2
left_child=1 2 -1 -3 5 -2 -6
right_child=4 3 -4 -5 6 -7 -8
leaf_value=0.00014580405488083412 0.035158781567916735 0.014224761675435672 -0.0090564231337972364 -0.00084612732701636116 -0.0027409300369418067 0.010443142749985149 0.010590090230963517
leaf_weight=2498487 55221 296851 831103 414094 188662 83629 102308
leaf_count=2498487 55221 296851 831103 414094 188662 83629 102308
internal_value=0 -0.00271439 -0.00717058 0.0181555 0.0262218 0.0675754 0.00648797
internal_weight=0 4.04054e+06 3.32959e+06 710945 429820 138850 290970
internal_count=4470355 4040535 3329590 710945 429820 138850 290970
shrinkage=0.3


Tree=74
num_leaves=8
num_cat=0
split_feature=43 40 22 1 20 6 0
split_gain=310.945 332.708 436.876 285.799 196.789 157.822 36.4052
threshold=-0.14971923828124997 0.33996582031250006 1.0000000180025095e-35 4.7480468750000009 1945.0000000000002 15.574218750000002 1.4086914062500002
decision_type=2 2 2 2 2 2 2
left_child=3 2 -2 5 -3 -1 -5
right_child=1 4 -4 6 -6 -7 -8
leaf_value=-0.02220550186664506 0.0010839483658199541 -0.039647701444786305 -0.0069889759178390675 0.0088063594841471058 0.0095906638367400081 0.0084591975807616088 0.033937396158900256
leaf_weight=118419 3171322 7445 745043 13002 389178 17314 8632
leaf_count=118419 3171322 7445 745043 13002 389178 17314 8632
internal_value=0 0.00128894 -0.00150611 -0.0439661 0.028888 -0.0609798 0.0627789
internal_weight=0 4.31299e+06 3.91637e+06 157367 396623 135733 21634
internal_count=4470355 4312988 3916365 157367 396623 135733 21634
shrinkage=0.3


Tree=75
num_leaves=8
num_cat=0
split_feature=9 7 6 21 5 5 0
split_gain=350.264 565.128 387.474 782.711 467.3 275.309 248.732
threshold=7.8652343750000009 0.90454101562500011 4.4394531250000009 1.0000000180025095e-35 -0.19171142578124997 -0.92358398437499989 -3.7685546874999996
decision_type=2 2 2 2 2 2 2
left_child=2 5 4 -4 -1 -2 -3
right_child=1 6 3 -5 -6 -7 -8
leaf_value=0.0065214495177209203 -0.012502597236397295 0.16242613289818991 -0.00060182547036269926 -0.017529882092557986 -0.0013207989190417355 0.022533209388922722 0.036785336498310263
leaf_weight=1060753 54905 1461 1025047 323380 1924574 31921 48314
leaf_count=1060753 54905 1461 1025047 323380 1924574 31921 48314
internal_value=0 0.0499601 -0.00146912 -0.0155384 0.00488575 0.00126028 0.134911
internal_weight=0 136601 4.33375e+06 1.34843e+06 2.98533e+06 86826 49775
internal_count=4470355 136601 4333754 1348427 2985327 86826 49775
shrinkage=0.3


Tree=76
num_leaves=8
num_cat=0
split_feature=8 45 16 6 35 1 44
split_gain=407.327 425.947 422.73 419.989 303.921 192.189 170.031
threshold=4.6152343750000009 -0.25134277343749994 0.016822814941406253 10.558593750000002 1.0000000180025095e-35 -5.2207031249999991 -0.088104248046874986
decision_type=2 2 2 2 2 2 2
left_child=1 3 -3 -1 5 -2 -6
right_child=4 2 -4 -5 6 -7 -8
leaf_value=-0.030456846404409453 0.03643598227099322 -0.006740475480738522 0.0010550256461960296 0.01123819248338122 -0.037627018429077626 0.0081411976109397339 -0.0033233226584575325
leaf_weight=82371 22435 802786 2843940 29540 15202 584123 89958
leaf_count=82371 22435 802786 2843940 29540 15202 584123 89958
internal_value=0 -0.00406842 -0.00220356 -0.0648368 0.0220215 0.0306258 -0.0276076
internal_weight=0 3.75864e+06 3.64673e+06 111911 711718 606558 105160
internal_count=4470355 3758637 3646726 111911 711718 606558 105160
shrinkage=0.3


Tree=77
num_leaves=8
num_cat=0
split_feature=0 12 2 25 28 44 1
split_gain=283.371 331.718 1205.35 349.304 301.31 194.222 193.072
threshold=5.1308593750000009 -1.0000000180025095e-35 -0.21234130859374997 1.0000000180025095e-35 1.0000000180025095e-35 -0.17706298828124997 -1.6274414062499998
decision_type=2 2 2 2 2 2 2
left_child=1 2 -1 -3 6 -6 -2
right_child=4 3 -4 -5 5 -7 -8
leaf_value=0.021624287562622878 0.017258937583671367 0.00050663840198344979 -0.01605065555229928 -0.0057100154734554083 -0.03083677203302377 -4.4716890144092913e-05 0.0036782079929352784
leaf_weight=214609 210972 2302173 118699 1257933 20605 175127 170237
leaf_count=214609 210972 2302173 118699 1257933 20605 175127 170237
internal_value=0 -0.00280891 0.0273578 -0.00563321 0.0209386 -0.0109541 0.0373139
internal_weight=0 3.89341e+06 333308 3.56011e+06 576941 195732 381209
internal_count=4470355 3893414 333308 3560106 576941 195732 381209
shrinkage=0.3


Tree=78
num_leaves=8
num_cat=0
split_feature=6 16 15 43 44 42 10
split_gain=338.878 481.441 336.314 279.971 324.707 241.461 135.102
threshold=-2.7431640624999996 0.061309814453125007 -0.0053462982177734366 1.0000000180025095e-35 0.15338134765625003 -0.035202026367187493 0.069458007812500014
decision_type=2 2 2 2 2 2 2
left_child=1 2 -1 4 -2 -5 -3
right_child=3 6 -4 5 -6 -7 -8
leaf_value=0.067519576682579227 -0.0055770588212564207 -0.038586626443195611 0.016323411313276092 -0.0051880716267680782 0.0068547626604284709 0.002485586322274694 0.007411948730176374
leaf_weight=12854 1301881 17341 113675 437553 221219 2357237 8595
leaf_count=12854 1301881 17341 113675 437553 221219 2357237 8595
internal_value=0 0.0463065 0.071748 -0.00166378 -0.0125714 0.00428066 -0.0778101
internal_weight=0 152465 126529 4.31789e+06 1.5231e+06 2.79479e+06 25936
internal_count=4470355 152465 126529 4317890 1523100 2794790 25936
shrinkage=0.3


Tree=79
num_leaves=8
num_cat=0
split_feature=44 4 17 6 17 8 4
split_gain=270.269 371.867 1128.17 745.451 163.951 106.617 90.4095
threshold=0.59008789062500011 0.58715820312500011 0.013389587402343752 6.7480468750000009 0.078247070312500014 3.6103515625000004 5.3222656250000009
decision_type=2 2 2 2 2 2 2
left_child=1 3 -3 -1 6 -6 -2
right_child=4 2 -4 -5 5 -7 -8
leaf_value=0.0052173801133271573 0.013259650243161296 0.0041231319804225248 -0.0097418455913454074 -0.0078923089022464674 -0.0038695124489759665 0.028662578366531192 0.033819262390900329
leaf_weight=1691406 46250 977031 1149700 507499 54624 10871 32974
leaf_count=1691406 46250 977031 1149700 507499 54624 10871 32974
internal_value=0 -0.00181276 -0.0112407 0.00730571 0.0421193 0.00510078 0.0727227
internal_weight=0 4.32564e+06 2.12673e+06 2.19891e+06 144719 65495 79224
internal_count=4470355 4325636 2126731 2198905 144719 65495 79224
shrinkage=0.3


Tree=80
num_leaves=8
num_cat=0
split_feature=10 16 10 16 10 14 44
split_gain=272.23 937.568 831.902 683.653 1355.1 745.52 624.181
threshold=-0.0014710426330566404 0.044662475585937507 -0.013542175292968748 0.035476684570312507 0.0092353820800781267 0.0086326599121093767 0.056320190429687507
decision_type=2 2 2 2 2 2 2
left_child=1 6 -3 4 -2 -5 -1
right_child=3 2 -4 5 -6 -7 -8
leaf_value=0.0010286576816954881 0.0083233252006926339 -0.0039880727432864251 -0.029981388692258214 0.014339238285419161 -0.0097915157806129863 0.001287237740671637 0.034557470368429939
leaf_weight=300125 571082 296580 176915 539053 1064303 1462344 59953
leaf_count=300125 571082 296580 176915 539053 1064303 1462344 59953
internal_value=0 -0.0164208 -0.0456671 0.00361506 -0.0115525 0.0160088 0.0220374
internal_weight=0 833573 473495 3.63678e+06 1.63539e+06 2.0014e+06 360078
internal_count=4470355 833573 473495 3636782 1635385 2001397 360078
shrinkage=0.3


Tree=81
num_leaves=8
num_cat=0
split_feature=45 31 15 36 19 18 25
split_gain=327.933 683.651 1386.86 487.004 463.856 307.501 287.425
threshold=0.19805908203125003 1.0000000180025095e-35 0.012409210205078127 1.0000000180025095e-35 0.017997741699218753 0.047195434570312507 1.0000000180025095e-35
decision_type=2 2 2 2 2 2 2
left_child=1 3 -3 -1 5 -2 -6
right_child=4 2 -4 -5 6 -7 -8
leaf_value=0.0013954004651145627 0.03995914061234259 -0.04008699431707189 0.0027400000406554853 -0.0088082998250309623 0.0068565962423699041 0.0065576004595788639 -0.010476318443852356
leaf_weight=3134958 55857 118023 160726 486278 356352 44623 113538
leaf_count=3134958 55857 118023 160726 486278 356352 44623 113538
internal_value=0 -0.00358938 -0.0513102 8.39855e-05 0.0220823 0.0837519 0.008895
internal_weight=0 3.89999e+06 278749 3.62124e+06 570370 100480 469890
internal_count=4470355 3899985 278749 3621236 570370 100480 469890
shrinkage=0.3


Tree=82
num_leaves=8
num_cat=0
split_feature=47 46 16 42 10 0 0
split_gain=355.783 332.899 438.629 348.057 220.592 237.963 149.725
threshold=0.20587158203125003 -0.12149047851562499 0.071014404296875014 0.39953613281250006 0.25756835937500006 -1.1323242187499998 1.1635742187500002
decision_type=2 2 2 2 2 2 2
left_child=1 2 -1 -3 5 -2 -6
right_child=4 3 -4 -5 6 -7 -8
leaf_value=0.0071824710160085488 0.022643261181091195 -0.001381451975234355 -0.035002193436885112 0.0089948542949793205 -0.032701866057818794 0.0057887028605687662 0.0048738011197957546
leaf_weight=36236 91296 3497261 57203 317343 20108 432742 18166
leaf_count=36236 91296 3497261 57203 317343 20108 432742 18166
internal_value=0 -0.00317193 -0.0621427 -0.00172743 0.0237307 0.0290835 -0.0495577
internal_weight=0 3.90804e+06 93439 3.8146e+06 562312 524038 38274
internal_count=4470355 3908043 93439 3814604 562312 524038 38274
shrinkage=0.3


Tree=83
num_leaves=8
num_cat=0
split_feature=46 6 17 2 6 1 45
split_gain=313.47 296.117 467.727 466.517 184.15 173.261 122.607
threshold=1.0385742187500002 10.558593750000002 -1.0000000180025095e-35 10.660156250000002 15.574218750000002 1.1879882812500002 0.54565429687500011
decision_type=2 2 2 2 2 2 2
left_child=1 3 -3 -1 6 -6 -2
right_child=4 2 -4 -5 5 -7 -8
leaf_value=-3.628963869503612e-05 -0.0020593898811655338 0.0029768409059678035 -0.016217540471403055 0.033725231869690918 0.036470374973283107 0.0075013230695157463 0.033961304075041401
leaf_weight=3820673 63825 204687 258624 37194 42560 32980 9812
leaf_count=3820673 63825 204687 258624 37194 42560 32980 9812
internal_value=0 -0.00190473 -0.0257921 0.000964026 0.04472 0.0794093 0.00913435
internal_weight=0 4.32118e+06 463311 3.85787e+06 149177 75540 73637
internal_count=4470355 4321178 463311 3857867 149177 75540 73637
shrinkage=0.3


Tree=84
num_leaves=8
num_cat=0
split_feature=43 10 15 23 14 19 40
split_gain=243.4 245.369 916.184 482.925 155.45 106.584 87.0874
threshold=0.52856445312500011 0.090240478515625014 0.026092529296875003 1.0000000180025095e-35 0.016487121582031253 0.070861816406250014 0.013561248779296877
decision_type=2 2 2 2 2 2 2
left_child=1 3 -3 -1 5 -2 -6
right_child=4 2 -4 -5 6 -7 -8
leaf_value=-1.5615002733873117e-05 0.078941340907369081 -0.02343689722564208 -4.6647950565085448e-05 0.019606426505128994 0.018106799124607571 0.0087434173869906373 0.0028079223469011116
leaf_weight=3287076 5080 189743 732724 116899 60182 3156 75495
leaf_count=3287076 5080 189743 732724 116899 60182 3156 75495
internal_value=0 -0.00172622 -0.0161927 0.00219414 0.0400775 0.173473 0.0319801
internal_weight=0 4.32644e+06 922467 3.40398e+06 143913 8236 135677
internal_count=4470355 4326442 922467 3403975 143913 8236 135677
shrinkage=0.3


Tree=85
num_leaves=8
num_cat=0
split_feature=41 11 12 1 15 28 26
split_gain=324.648 261.254 971.66 229.881 206.998 211.102 136.972
threshold=0.59301757812500011 -0.031799316406249993 0.064453125000000014 -5.2207031249999991 -0.015754699707031247 1.0000000180025095e-35 1.0000000180025095e-35
decision_type=2 2 2 2 2 2 2
left_child=1 2 -1 -3 5 -2 -6
right_child=4 3 -4 -5 6 -7 -8
leaf_value=-0.038293836900586228 0.010940323524368887 0.01166145896923684 0.0081457448421009965 -0.00043269807530443963 0.01541761241943084 0.088435564631920219 -0.0080841626671913931
leaf_weight=72131 6187 146615 92611 4012859 105145 6474 28333
leaf_count=72131 6187 146615 92611 4012859 105145 6474 28333
internal_value=0 -0.00156822 -0.0406249 -2.13261e-05 0.0463544 0.168554 0.0347632
internal_weight=0 4.32422e+06 164742 4.15947e+06 146139 12661 133478
internal_count=4470355 4324216 164742 4159474 146139 12661 133478
shrinkage=0.3


Tree=86
num_leaves=8
num_cat=0
split_feature=44 14 17 10 40 18 1
split_gain=260.561 349.333 492.389 455.928 230.605 109.616 82.2728
threshold=-0.17706298828124997 0.12426757812500001 0.078247070312500014 0.039199829101562507 0.72143554687500011 0.015815734863281253 -1.9721679687499998
decision_type=2 2 2 2 2 2 2
left_child=4 3 -3 -2 5 -1 -6
right_child=1 2 -4 -5 6 -7 -8
leaf_value=-0.035625403719774039 0.0016505133908687772 0.016940713835715476 -5.424775091984111e-05 -0.0053462257424889701 -0.0068596617237419097 -0.013650753667543432 0.022078514480274584
leaf_weight=25992 2382198 257006 380711 1293240 16068 95478 19662
leaf_count=25992 2382198 257006 380711 1293240 16068 95478 19662
internal_value=0 0.00104418 0.0226496 -0.00270453 -0.0404036 -0.0611762 0.0302161
internal_weight=0 4.31316e+06 637717 3.67544e+06 157200 121470 35730
internal_count=4470355 4313155 637717 3675438 157200 121470 35730
shrinkage=0.3


Tree=87
num_leaves=8
num_cat=0
split_feature=40 29 16 46 20 19 15
split_gain=297.165 320.065 304.382 283.554 518.727 368.964 232.823
threshold=0.11996459960937501 1.0000000180025095e-35 0.0058174133300781259 0.015018463134765627 1975.0000000000002 0.022315979003906253 -0.0011773109436035154
decision_type=2 2 2 2 2 2 2
left_child=1 2 -1 4 -2 -5 -3
right_child=3 6 -4 5 -6 -7 -8
leaf_value=-0.0095895329346823138 -0.0287639540420907 -0.025491475762222656 0.00040486825776331684 0.010271012135792233 0.015685645666280966 -0.0038757424306723235 -0.0058498300442045579
leaf_weight=303322 25771 75136 2861425 257347 284288 467073 195993
leaf_count=303322 25771 75136 2861425 257347 284288 467073 195993
internal_value=0 -0.00466845 -0.00184345 0.0146641 0.0399705 0.00383277 -0.0376433
internal_weight=0 3.43588e+06 3.16475e+06 1.03448e+06 310059 724420 271129
internal_count=4470355 3435876 3164747 1034479 310059 724420 271129
shrinkage=0.3


Tree=88
num_leaves=8
num_cat=0
split_feature=9 49 3 9 17 5 17
split_gain=247.632 603.69 367.024 317.131 359.629 296.318 271.012
threshold=5.3613281250000009 0.016960144042968753 -3.6083984374999996 0.89868164062500011 -0.0030641555786132808 -7.6152343749999991 -0.0011477470397949217
decision_type=2 2 2 2 2 2 2
left_child=3 6 -3 4 -1 -5 -2
right_child=1 2 -4 5 -6 -7 -8
leaf_value=-0.0062092038237621062 0.013474746297880306 -0.020272297366549594 0.015512054606170691 0.016886733107702615 0.0034569757915146669 -0.0044195942701950458 -0.027212024644211151
leaf_weight=422553 19802 28118 312357 60920 1922326 1646707 57572
leaf_count=422553 19802 28118 312357 60920 1922326 1646707 57572
internal_value=0 0.0237363 0.0418561 -0.00183205 0.00571702 -0.0121983 -0.0559974
internal_weight=0 417849 340475 4.05251e+06 2.34488e+06 1.70763e+06 77374
internal_count=4470355 417849 340475 4052506 2344879 1707627 77374
shrinkage=0.3


Tree=89
num_leaves=8
num_cat=0
split_feature=20 2 14 5 12 4 47
split_gain=242.516 257.731 713.186 314.045 218.67 136.236 59.9183
threshold=2005.0000000000002 -2.7666015624999996 1.0000000180025095e-35 1.4272460937500002 0.032302856445312507 -0.37829589843749994 0.051864624023437507
decision_type=2 2 2 2 2 2 2
left_child=1 2 -1 -3 5 -2 -6
right_child=4 3 -4 -5 6 -7 -8
leaf_value=-0.014702641913446458 0.0096619363884008231 0.00053796466914519502 0.012850745347628688 -0.0054263481088044551 -0.012043395799227015 0.034426712651441739 0.027007742692653533
leaf_weight=110937 39609 2779272 355405 1112607 28112 40368 4045
leaf_count=110937 39609 2779272 355405 1112607 28112 40368 4045
internal_value=0 -0.0012284 0.0209871 -0.00389036 0.0458713 0.0738728 -0.0237706
internal_weight=0 4.35822e+06 466342 3.89188e+06 112134 79977 32157
internal_count=4470355 4358221 466342 3891879 112134 79977 32157
shrinkage=0.3


Tree=90
num_leaves=8
num_cat=0
split_feature=10 15 16 11 10 10 44
split_gain=230.349 575.323 525.83 1293.1 1247.33 383.122 289.322
threshold=-0.0014710426330566404 0.0055675506591796884 0.019905090332031253 0.0010313987731933596 0.020317077636718753 -0.020889282226562497 0.056320190429687507
decision_type=2 2 2 2 2 2 2
left_child=1 6 3 -2 -4 -3 -1
right_child=2 5 4 -5 -6 -7 -8
leaf_value=0.00076642374709572721 -0.021178701133197982 0.0024843870771224853 0.015847392178540424 0.0024482827591030105 3.9759071649631261e-06 -0.016146132160500686 0.022591916612047909
leaf_weight=273737 298861 138272 569779 689352 2079216 352835 68303
leaf_count=273737 298861 138272 569779 689352 2079216 352835 68303
internal_value=0 -0.0144052 0.00402875 -0.0156571 0.0113726 -0.0363356 0.0170827
internal_weight=0 833147 3.63721e+06 988213 2.649e+06 491107 342040
internal_count=4470355 833147 3637208 988213 2648995 491107 342040
shrinkage=0.3


Tree=91
num_leaves=8
num_cat=0
split_feature=27 18 6 10 15 17 14
split_gain=225.969 332.869 253.08 473.093 411.885 131.707 36.1556
threshold=1.0000000180025095e-35 0.015815734863281253 2.3662109375000004 -0.0014710426330566404 -0.015754699707031247 -0.0030641555786132808 -0.0079002380371093733
decision_type=2 2 2 2 2 2 2
left_child=2 5 3 -1 -4 -2 -3
right_child=1 6 4 -5 -6 -7 -8
leaf_value=-0.0081586228610186131 -0.01193728377384861 0.037776982098837536 -0.015738379816223259 0.0037705274101876686 -0.0011691518187131253 0.035604624685409432 -0.040655908846222562
leaf_weight=351064 6035 567 192885 2025527 1846358 40035 7884
leaf_count=351064 6035 567 192885 2025527 1846358 40035 7884
internal_value=0 0.064457 -0.000317995 0.00669461 -0.00849068 0.0979227 -0.117979
internal_weight=0 54521 4.41583e+06 2.37659e+06 2.03924e+06 46070 8451
internal_count=4470355 54521 4415834 2376591 2039243 46070 8451
shrinkage=0.3


Tree=92
num_leaves=8
num_cat=0
split_feature=19 16 43 5 6 40 6
split_gain=225.106 426.799 264.195 294.637 240.264 168.052 120.093
threshold=0.19860839843750003 0.047958374023437507 -0.040298461914062493 4.9902343750000009 1.0000000180025095e-35 0.33996582031250006 12.675781250000002
decision_type=2 2 2 2 2 2 2
left_child=2 4 6 -4 -2 -3 -1
right_child=1 5 3 -5 -6 -7 -8
leaf_value=-0.010144743690054163 0.027991790127396186 -0.012688333941050987 -0.0002846226774286228 0.015521577602228101 0.0052173546383257234 0.012918601233445712 0.0039302198648104242
leaf_weight=340248 92852 85754 3670007 109300 75663 31553 64978
leaf_count=340248 92852 85754 3670007 109300 75663 31553 64978
internal_value=0 0.0269795 -0.00202684 0.000575009 0.0592203 -0.0193354 -0.0262927
internal_weight=0 285822 4.18453e+06 3.77931e+06 168515 117307 405226
internal_count=4470355 285822 4184533 3779307 168515 117307 405226
shrinkage=0.3


Tree=93
num_leaves=8
num_cat=0
split_feature=1 7 19 4 21 19 0
split_gain=246.49 688.404 525.619 301.218 1238.44 544.512 175.479
threshold=-3.3779296874999996 0.27233886718750006 -0.0012531280517578123 1.2934570312500002 1.0000000180025095e-35 0.039520263671875007 2.6357421875000004
decision_type=2 2 2 2 2 2 2
left_child=1 6 -3 5 -5 -2 -1
right_child=3 2 -4 4 -6 -7 -8
leaf_value=0.069792778141922071 -0.0026853024220931227 0.026668288787373044 -0.0024935968647345811 0.00050236269135175374 -0.020206472571275839 0.0062552872242070089 0.028859687130514802
leaf_weight=11858 1351102 66490 340465 1200391 331723 1122371 45955
leaf_count=11858 1351102 66490 340465 1200391 331723 1122371 45955
internal_value=0 0.0220758 0.00756998 -0.00225292 -0.0132712 0.00457203 0.124185
internal_weight=0 464768 406955 4.00559e+06 1.53211e+06 2.47347e+06 57813
internal_count=4470355 464768 406955 4005587 1532114 2473473 57813
shrinkage=0.3


Tree=94
num_leaves=8
num_cat=0
split_feature=9 5 7 15 9 6 15
split_gain=219.011 626.017 1286.2 476.245 232.301 361.566 299.579
threshold=-3.3671874999999996 -7.6152343749999991 0.41857910156250006 -0.0032110214233398433 4.6503906250000009 4.4394531250000009 -1.0000000180025095e-35
decision_type=2 2 2 2 2 2 2
left_child=1 2 -1 -3 5 -2 -6
right_child=4 3 -4 -5 6 -7 -8
leaf_value=-0.00071468122355987699 0.0004702812471101614 -0.0091378145692642514 -0.25747005297551245 0.026657845047427783 0.014889823807365164 -0.0062931200126751094 0.00025230681021947299
leaf_weight=7090 2796233 48924 2334 105771 192501 954106 363396
leaf_count=7090 2796233 48924 2334 105771 192501 954106 363396
internal_value=0 0.0358798 -0.214347 0.0511236 -0.00134015 -0.00416788 0.0177371
internal_weight=0 164119 9424 154695 4.30624e+06 3.75034e+06 555897
internal_count=4470355 164119 9424 154695 4306236 3750339 555897
shrinkage=0.3


Tree=95
num_leaves=8
num_cat=0
split_feature=46 49 45 16 31 20 1
split_gain=260.06 232.576 308.66 168.973 151.169 107.602 91.7283
threshold=0.72827148437500011 0.64575195312500011 -0.25134277343749994 0.099212646484375014 1.0000000180025095e-35 1985.0000000000002 1.1879882812500002
decision_type=2 2 2 2 2 2 2
left_child=1 2 -1 -3 6 -6 -2
right_child=4 3 -4 -5 5 -7 -8
leaf_value=-0.018007264545013172 0.010931567680472971 0.016303698694837096 -0.00065533695962187064 -0.022757965526640767 0.047009193742924775 0.0067998277839930966 -0.00038134334255942904
leaf_weight=94461 163620 104652 3965183 11016 14936 10000 106487
leaf_count=94461 163620 104652 3965183 11016 14936 10000 106487
internal_value=0 -0.00227049 -0.00353029 0.0419451 0.0284494 0.102947 0.0215719
internal_weight=0 4.17531e+06 4.05964e+06 115668 295043 24936 270107
internal_count=4470355 4175312 4059644 115668 295043 24936 270107
shrinkage=0.3


Tree=96
num_leaves=8
num_cat=0
split_feature=13 11 19 31 15 5 19
split_gain=289.18 955.901 939.621 625.915 1296.47 656.671 422.099
threshold=-0.00093603134155273427 0.0039978027343750009 0.014209747314453127 1.0000000180025095e-35 0.016258239746093753 0.36486816406250006 0.026733398437500003
decision_type=2 2 2 2 2 2 2
left_child=1 2 -1 5 -5 -2 -3
right_child=3 6 -4 4 -6 -7 -8
leaf_value=0.026922614123961377 0.0038170743666959186 -0.0093751344919258579 -0.0022048995409106324 -0.048559772623240675 0.0010674978867050815 -0.0047959982371879595 0.0060326042596640286
leaf_weight=255174 1677953 375580 163568 75635 126807 1516823 278815
leaf_count=255174 1677953 375580 163568 75635 126807 1516823 278815
internal_value=0 0.0145063 0.0518163 -0.00432438 -0.0582463 -0.000907533 -0.00936811
internal_weight=0 1.07314e+06 418742 3.39722e+06 202442 3.19478e+06 654395
internal_count=4470355 1073137 418742 3397218 202442 3194776 654395
shrinkage=0.3


Tree=97
num_leaves=8
num_cat=0
split_feature=2 8 7 8 49 4 6
split_gain=266.993 418.841 359.428 239.449 380.873 377.31 161.975
threshold=-1.7260742187499998 1.5073242187500002 3.8193359375000004 6.0761718750000009 -0.16571044921874997 -1.2075195312499998 3.8193359375000004
decision_type=2 2 2 2 2 2 2
left_child=1 2 -1 4 -2 -5 -3
right_child=3 6 -4 5 -6 -7 -8
leaf_value=-0.00072400757603224288 -0.019508088335616767 0.013402882326216141 0.02332240506189958 -0.0044833122925252858 -0.0012920439325113033 0.013678009166179927 0.03570905690699909
leaf_weight=563530 106786 112242 62110 182975 3167649 235416 39647
leaf_count=563530 106786 112242 62110 182975 3167649 235416 39647
internal_value=0 0.0169798 0.00554395 -0.00340863 -0.00628702 0.0191184 0.0640846
internal_weight=0 777529 625640 3.69283e+06 3.27444e+06 418391 151889
internal_count=4470355 777529 625640 3692826 3274435 418391 151889
shrinkage=0.3


Tree=98
num_leaves=8
num_cat=0
split_feature=10 14 14 14 11 10 12
split_gain=225.668 454.42 569.176 231.227 673.749 630.17 166.515
threshold=0.13714599609375003 0.037612915039062507 0.15954589843750003 0.065704345703125014 -0.031799316406249993 0.059585571289062507 0.21264648437500003
decision_type=2 2 2 2 2 2 2
left_child=3 6 -3 4 -1 -5 -2
right_child=1 2 -4 5 -6 -7 -8
leaf_value=-0.041931734997248789 0.013647284573817102 -0.015946942503825709 0.0052096725783720181 -0.0012914818327913575 0.0001639912793832534 0.015038567687356043 0.062821337075214256
leaf_weight=34615 50839 322259 177471 536120 2989466 352527 7058
leaf_count=34615 50839 322259 177471 536120 2989466 352527 7058
internal_value=0 -0.018395 -0.0281117 0.00310771 -0.00105952 0.0172889 0.065473
internal_weight=0 557627 499730 3.91273e+06 3.02408e+06 888647 57897
internal_count=4470355 557627 499730 3912728 3024081 888647 57897
shrinkage=0.3


Tree=99
num_leaves=8
num_cat=0
split_feature=3 8 41 1 14 8 36
split_gain=213.385 240.088 238.973 243.069 225.423 212.031 147.863
threshold=4.1347656250000009 0.36291503906250006 -0.27673339843749994 -3.3779296874999996 -0.0030698776245117183 7.0214843750000009 1.0000000180025095e-35
decision_type=2 2 2 2 2 2 2
left_child=2 6 4 -4 -1 -3 -2
right_child=1 5 3 -5 -6 -7 -8
leaf_value=0.036300390112346877 0.0053257033538411987 0.025765354034274147 0.0072441937761049523 -0.0009332551924944167 -0.015547212082214271 -0.058242369677735786 -0.02122361513082056
leaf_weight=7992 191804 71026 359050 3681144 135587 2811 20941
leaf_count=7992 191804 71026 359050 3681144 135587 2811 20941
internal_value=0 0.026093 -0.00211317 -0.000688431 -0.0422041 0.0752238 0.0090413
internal_weight=0 286582 4.18377e+06 4.04019e+06 143579 73837 212745
internal_count=4470355 286582 4183773 4040194 143579 73837 212745
shrinkage=0.3


Tree=100
num_leaves=8
num_cat=0
split_feature=44 16 4 6 10 6 15
split_gain=216.817 283.197 207.315 839.904 524.463 172.638 140.318
threshold=-0.088104248046874986 0.044662475585937507 -0.17327880859374997 1.3344726562500002 0.012664794921875002 12.675781250000002 0.16131591796875003
decision_type=2 2 2 2 2 2 2
left_child=1 6 3 -2 -4 -3 -1
right_child=2 5 4 -5 -6 -7 -8
leaf_value=-0.0021350567559239521 0.013652203338036115 -0.017764073986142263 0.0038730798070955173 -0.0027528304939748414 -0.0042570903714823733 0.0078911719413849862 0.022114700436540916
leaf_weight=76089 462082 178707 1186465 716258 1793635 27199 29920
leaf_count=76089 462082 178707 1186465 716258 1793635 27199 29920
internal_value=0 -0.0262969 0.0010391 0.0122678 -0.00340077 -0.0479172 0.0156973
internal_weight=0 311915 4.15844e+06 1.17834e+06 2.9801e+06 205906 106009
internal_count=4470355 311915 4158440 1178340 2980100 205906 106009
shrinkage=0.3


Tree=101
num_leaves=8
num_cat=0
split_feature=47 8 49 15 45 16 15
split_gain=248.519 236.491 354.736 292.662 88.7136 65.7757 43.1973
threshold=0.56616210937500011 4.0761718750000009 -0.16571044921874997 0.031112670898437503 0.54565429687500011 0.15313720703125003 0.25183105468750006
decision_type=2 2 2 2 2 2 2
left_child=1 2 -1 -3 5 -2 -6
right_child=4 3 -4 -5 6 -7 -8
leaf_value=-0.021624760271510376 0.011784659469005927 0.00031930531248997273 -0.00099108253882681683 0.012306454422089818 0.014360228996670173 -0.011828521656879377 0.044508464782524217
leaf_weight=76675 112804 572631 3409186 269613 7210 11720 10516
leaf_count=76675 112804 572631 3409186 269613 7210 11720 10516
internal_value=0 -0.001183 -0.00481647 0.0138551 0.0412962 0.0318741 0.107486
internal_weight=0 4.32811e+06 3.48586e+06 842244 142250 124524 17726
internal_count=4470355 4328105 3485861 842244 142250 124524 17726
shrinkage=0.3


Tree=102
num_leaves=8
num_cat=0
split_feature=44 18 14 14 19 1 14
split_gain=261.59 600.4 375.413 299.178 272.588 290.407 259.297
threshold=0.15338134765625003 0.0031270980834960942 0.12426757812500001 0.22302246093750003 0.19860839843750003 2.7470703125000004 0.054122924804687507
decision_type=2 2 2 2 2 2 2
left_child=4 3 -3 -2 5 -1 -6
right_child=1 2 -4 -5 6 -7 -8
leaf_value=-0.00041907294922291906 0.019811878669152565 -0.0085179189931822025 0.007209525131924562 0.11418584415473719 0.033914258260638729 -0.0077742841869413064 0.0049206949193371461
leaf_weight=2981053 153361 234085 327982 3084 33560 576567 160663
leaf_count=2981053 153361 234085 327982 3084 33560 576567 160663
internal_value=0 0.017449 0.0021983 0.0722409 -0.00337873 -0.00537033 0.0331017
internal_weight=0 718512 562067 156445 3.75184e+06 3.55762e+06 194223
internal_count=4470355 718512 562067 156445 3751843 3557620 194223
shrinkage=0.3


Tree=103
num_leaves=8
num_cat=0
split_feature=0 28 9 6 6 7 3
split_gain=202.904 277.998 222.169 449.8 189.501 140.522 89.9982
threshold=6.9667968750000009 1.0000000180025095e-35 -1.0000000180025095e-35 3.2666015625000004 20.179687500000004 -4.9238281249999991 4.1347656250000009
decision_type=2 2 2 2 2 2 2
left_child=2 6 3 -1 -4 -3 -2
right_child=1 5 4 -5 -6 -7 -8
leaf_value=0.0062705275784523118 0.016511429608713435 0.039021765146678898 -0.0025454015043977073 -0.0050750337845920515 0.011092799765232222 -0.0086094174129138917 -0.0041797314286616
leaf_weight=955931 172304 5949 2662722 468685 94964 88547 21253
leaf_count=955931 172304 5949 2662722 468685 94964 88547 21253
internal_value=0 0.0257586 -0.00168064 0.00845982 -0.00691918 -0.0187026 0.047465
internal_weight=0 288053 4.1823e+06 1.42462e+06 2.75769e+06 94496 193557
internal_count=4470355 288053 4182302 1424616 2757686 94496 193557
shrinkage=0.3


Tree=104
num_leaves=8
num_cat=0
split_feature=16 11 15 10 12 10 5
split_gain=214.243 981.987 1003.42 450.62 318.68 582.382 441.26
threshold=0.0058174133300781259 1.0000000180025095e-35 0.0031213760375976567 0.001589775085449219 0.028106689453125003 1.0000000180025095e-35 0.56518554687500011
decision_type=2 2 2 2 2 2 2
left_child=1 2 -1 -3 5 -2 -6
right_child=4 3 -4 -5 6 -7 -8
